|--- feature_11 <= 25.02
|   |--- feature_12 <= 25.17
|   |   |--- feature_13 <= 25.37
|   |   |   |--- feature_3 <= 26.36
|   |   |   |   |--- feature_19 <= 26.05
|   |   |   |   |   |--- feature_14 <= 25.93
|   |   |   |   |   |   |--- feature_9 <= 24.88
|   |   |   |   |   |   |   |--- feature_17 <= 25.93
|   |   |   |   |   |   |   |   |--- feature_13 <= 24.71
|   |   |   |   |   |   |   |   |   |--- feature_43 <= 26.05
|   |   |   |   |   |   |   |   |   |   |--- feature_20 <= 26.69
|   |   |   |   |   |   |   |   |   |   |   |--- feature_14 <= 25.69
|   |   |   |   |   |   |   |   |   |   |   |   |--- feature_3 <= 26.24
|   |   |   |   |   |   |   |   |   |   |   |   |   |--- feature_4 <= 23.60
|   |   |   |   |   |   |   |   |   |   |   |   |   |   |--- weights: [11008.00, 0.00] class: 0
|   |   |   |   |   |   |   |   |   |   |   |   |   |--- feature_4 >  23.60
|   |   |   |   |   |   |   |   |   |   |   |   |   |   |--- feature_0 <= 20.54
|   |   |   |   |   |   |   |   |   |   |   |   |   |   |   |--- weights: [0.00, 20.00] class: 1
|   |   |   |   |   |   |   |   |   |   |   |   |   |   |--- feature_0 >  20.54
|   |   |   |   |   |   |   |   |   |   |   |   |   |   |   |--- feature_4 <= 23.62
|   |   |   |   |   |   |   |   |   |   |   |   |   |   |   |   |--- weights: [0.00, 1.00] class: 1
|   |   |   |   |   |   |   |   |   |   |   |   |   |   |   |--- feature_4 >  23.62
|   |   |   |   |   |   |   |   |   |   |   |   |   |   |   |   |--- feature_20 <= 26.40
|   |   |   |   |   |   |   |   |   |   |   |   |   |   |   |   |   |--- feature_13 <= 24.64
|   |   |   |   |   |   |   |   |   |   |   |   |   |   |   |   |   |   |--- feature_18 <= 25.37
|   |   |   |   |   |   |   |   |   |   |   |   |   |   |   |   |   |   |   |--- feature_0 <= 26.02
|   |   |   |   |   |   |   |   |   |   |   |   |   |   |   |   |   |   |   |   |--- weights: [2171.00, 0.00] class: 0
|   |   |   |   |   |   |   |   |   |   |   |   |   |   |   |   |   |   |   |--- feature_0 >  26.02
|   |   |   |   |   |   |   |   |   |   |   |   |   |   |   |   |   |   |   |   |--- feature_0 <= 26.02
|   |   |   |   |   |   |   |   |   |   |   |   |   |   |   |   |   |   |   |   |   |--- weights: [0.00, 1.00] class: 1
|   |   |   |   |   |   |   |   |   |   |   |   |   |   |   |   |   |   |   |   |--- feature_0 >  26.02
|   |   |   |   |   |   |   |   |   |   |   |   |   |   |   |   |   |   |   |   |   |--- weights: [59.00, 0.00] class: 0
|   |   |   |   |   |   |   |   |   |   |   |   |   |   |   |   |   |   |--- feature_18 >  25.37
|   |   |   |   |   |   |   |   |   |   |   |   |   |   |   |   |   |   |   |--- feature_43 <= 25.79
|   |   |   |   |   |   |   |   |   |   |   |   |   |   |   |   |   |   |   |   |--- weights: [8.00, 0.00] class: 0
|   |   |   |   |   |   |   |   |   |   |   |   |   |   |   |   |   |   |   |--- feature_43 >  25.79
|   |   |   |   |   |   |   |   |   |   |   |   |   |   |   |   |   |   |   |   |--- weights: [0.00, 1.00] class: 1
|   |   |   |   |   |   |   |   |   |   |   |   |   |   |   |   |   |--- feature_13 >  24.64
|   |   |   |   |   |   |   |   |   |   |   |   |   |   |   |   |   |   |--- feature_8 <= 23.22
|   |   |   |   |   |   |   |   |   |   |   |   |   |   |   |   |   |   |   |--- weights: [0.00, 4.00] class: 1
|   |   |   |   |   |   |   |   |   |   |   |   |   |   |   |   |   |   |--- feature_8 >  23.22
|   |   |   |   |   |   |   |   |   |   |   |   |   |   |   |   |   |   |   |--- weights: [61.00, 0.00] class: 0
|   |   |   |   |   |   |   |   |   |   |   |   |   |   |   |   |--- feature_20 >  26.40
|   |   |   |   |   |   |   |   |   |   |   |   |   |   |   |   |   |--- feature_7 <= 25.23
|   |   |   |   |   |   |   |   |   |   |   |   |   |   |   |   |   |   |--- weights: [2.00, 0.00] class: 0
|   |   |   |   |   |   |   |   |   |   |   |   |   |   |   |   |   |--- feature_7 >  25.23
|   |   |   |   |   |   |   |   |   |   |   |   |   |   |   |   |   |   |--- weights: [0.00, 1.00] class: 1
|   |   |   |   |   |   |   |   |   |   |   |   |--- feature_3 >  26.24
|   |   |   |   |   |   |   |   |   |   |   |   |   |--- feature_1 <= 25.22
|   |   |   |   |   |   |   |   |   |   |   |   |   |   |--- weights: [0.00, 1.00] class: 1
|   |   |   |   |   |   |   |   |   |   |   |   |   |--- feature_1 >  25.22
|   |   |   |   |   |   |   |   |   |   |   |   |   |   |--- weights: [1.00, 0.00] class: 0
|   |   |   |   |   |   |   |   |   |   |   |--- feature_14 >  25.69
|   |   |   |   |   |   |   |   |   |   |   |   |--- feature_32 <= 25.42
|   |   |   |   |   |   |   |   |   |   |   |   |   |--- weights: [0.00, 1.00] class: 1
|   |   |   |   |   |   |   |   |   |   |   |   |--- feature_32 >  25.42
|   |   |   |   |   |   |   |   |   |   |   |   |   |--- weights: [1.00, 0.00] class: 0
|   |   |   |   |   |   |   |   |   |   |--- feature_20 >  26.69
|   |   |   |   |   |   |   |   |   |   |   |--- feature_7 <= 24.12
|   |   |   |   |   |   |   |   |   |   |   |   |--- weights: [5.00, 0.00] class: 0
|   |   |   |   |   |   |   |   |   |   |   |--- feature_7 >  24.12
|   |   |   |   |   |   |   |   |   |   |   |   |--- weights: [0.00, 4.00] class: 1
|   |   |   |   |   |   |   |   |   |--- feature_43 >  26.05
|   |   |   |   |   |   |   |   |   |   |--- feature_26 <= 25.84
|   |   |   |   |   |   |   |   |   |   |   |--- weights: [258.00, 0.00] class: 0
|   |   |   |   |   |   |   |   |   |   |--- feature_26 >  25.84
|   |   |   |   |   |   |   |   |   |   |   |--- feature_20 <= 25.15
|   |   |   |   |   |   |   |   |   |   |   |   |--- weights: [1.00, 0.00] class: 0
|   |   |   |   |   |   |   |   |   |   |   |--- feature_20 >  25.15
|   |   |   |   |   |   |   |   |   |   |   |   |--- weights: [0.00, 32.00] class: 1
|   |   |   |   |   |   |   |   |--- feature_13 >  24.71
|   |   |   |   |   |   |   |   |   |--- feature_17 <= 24.51
|   |   |   |   |   |   |   |   |   |   |--- feature_11 <= 24.08
|   |   |   |   |   |   |   |   |   |   |   |--- feature_31 <= 25.12
|   |   |   |   |   |   |   |   |   |   |   |   |--- weights: [0.00, 56.00] class: 1
|   |   |   |   |   |   |   |   |   |   |   |--- feature_31 >  25.12
|   |   |   |   |   |   |   |   |   |   |   |   |--- weights: [2.00, 0.00] class: 0
|   |   |   |   |   |   |   |   |   |   |--- feature_11 >  24.08
|   |   |   |   |   |   |   |   |   |   |   |--- weights: [25.00, 0.00] class: 0
|   |   |   |   |   |   |   |   |   |--- feature_17 >  24.51
|   |   |   |   |   |   |   |   |   |   |--- feature_17 <= 24.75
|   |   |   |   |   |   |   |   |   |   |   |--- feature_46 <= 25.48
|   |   |   |   |   |   |   |   |   |   |   |   |--- weights: [124.00, 0.00] class: 0
|   |   |   |   |   |   |   |   |   |   |   |--- feature_46 >  25.48
|   |   |   |   |   |   |   |   |   |   |   |   |--- feature_6 <= 21.27
|   |   |   |   |   |   |   |   |   |   |   |   |   |--- weights: [0.00, 23.00] class: 1
|   |   |   |   |   |   |   |   |   |   |   |   |--- feature_6 >  21.27
|   |   |   |   |   |   |   |   |   |   |   |   |   |--- weights: [7.00, 0.00] class: 0
|   |   |   |   |   |   |   |   |   |   |--- feature_17 >  24.75
|   |   |   |   |   |   |   |   |   |   |   |--- feature_14 <= 25.82
|   |   |   |   |   |   |   |   |   |   |   |   |--- feature_15 <= 24.16
|   |   |   |   |   |   |   |   |   |   |   |   |   |--- weights: [0.00, 1.00] class: 1
|   |   |   |   |   |   |   |   |   |   |   |   |--- feature_15 >  24.16
|   |   |   |   |   |   |   |   |   |   |   |   |   |--- feature_20 <= 26.07
|   |   |   |   |   |   |   |   |   |   |   |   |   |   |--- feature_15 <= 25.89
|   |   |   |   |   |   |   |   |   |   |   |   |   |   |   |--- feature_8 <= 25.47
|   |   |   |   |   |   |   |   |   |   |   |   |   |   |   |   |--- feature_17 <= 24.80
|   |   |   |   |   |   |   |   |   |   |   |   |   |   |   |   |   |--- feature_17 <= 24.80
|   |   |   |   |   |   |   |   |   |   |   |   |   |   |   |   |   |   |--- feature_46 <= 25.62
|   |   |   |   |   |   |   |   |   |   |   |   |   |   |   |   |   |   |   |--- weights: [45.00, 0.00] class: 0
|   |   |   |   |   |   |   |   |   |   |   |   |   |   |   |   |   |   |--- feature_46 >  25.62
|   |   |   |   |   |   |   |   |   |   |   |   |   |   |   |   |   |   |   |--- feature_19 <= 25.11
|   |   |   |   |   |   |   |   |   |   |   |   |   |   |   |   |   |   |   |   |--- weights: [0.00, 1.00] class: 1
|   |   |   |   |   |   |   |   |   |   |   |   |   |   |   |   |   |   |   |--- feature_19 >  25.11
|   |   |   |   |   |   |   |   |   |   |   |   |   |   |   |   |   |   |   |   |--- weights: [1.00, 0.00] class: 0
|   |   |   |   |   |   |   |   |   |   |   |   |   |   |   |   |   |--- feature_17 >  24.80
|   |   |   |   |   |   |   |   |   |   |   |   |   |   |   |   |   |   |--- weights: [0.00, 1.00] class: 1
|   |   |   |   |   |   |   |   |   |   |   |   |   |   |   |   |--- feature_17 >  24.80
|   |   |   |   |   |   |   |   |   |   |   |   |   |   |   |   |   |--- weights: [1608.00, 0.00] class: 0
|   |   |   |   |   |   |   |   |   |   |   |   |   |   |   |--- feature_8 >  25.47
|   |   |   |   |   |   |   |   |   |   |   |   |   |   |   |   |--- feature_24 <= 25.61
|   |   |   |   |   |   |   |   |   |   |   |   |   |   |   |   |   |--- weights: [22.00, 0.00] class: 0
|   |   |   |   |   |   |   |   |   |   |   |   |   |   |   |   |--- feature_24 >  25.61
|   |   |   |   |   |   |   |   |   |   |   |   |   |   |   |   |   |--- weights: [0.00, 2.00] class: 1
|   |   |   |   |   |   |   |   |   |   |   |   |   |   |--- feature_15 >  25.89
|   |   |   |   |   |   |   |   |   |   |   |   |   |   |   |--- feature_36 <= 25.29
|   |   |   |   |   |   |   |   |   |   |   |   |   |   |   |   |--- weights: [2.00, 0.00] class: 0
|   |   |   |   |   |   |   |   |   |   |   |   |   |   |   |--- feature_36 >  25.29
|   |   |   |   |   |   |   |   |   |   |   |   |   |   |   |   |--- weights: [0.00, 1.00] class: 1
|   |   |   |   |   |   |   |   |   |   |   |   |   |--- feature_20 >  26.07
|   |   |   |   |   |   |   |   |   |   |   |   |   |   |--- feature_46 <= 25.51
|   |   |   |   |   |   |   |   |   |   |   |   |   |   |   |--- weights: [0.00, 1.00] class: 1
|   |   |   |   |   |   |   |   |   |   |   |   |   |   |--- feature_46 >  25.51
|   |   |   |   |   |   |   |   |   |   |   |   |   |   |   |--- weights: [1.00, 0.00] class: 0
|   |   |   |   |   |   |   |   |   |   |   |--- feature_14 >  25.82
|   |   |   |   |   |   |   |   |   |   |   |   |--- feature_42 <= 25.28
|   |   |   |   |   |   |   |   |   |   |   |   |   |--- weights: [1.00, 0.00] class: 0
|   |   |   |   |   |   |   |   |   |   |   |   |--- feature_42 >  25.28
|   |   |   |   |   |   |   |   |   |   |   |   |   |--- weights: [0.00, 2.00] class: 1
|   |   |   |   |   |   |   |--- feature_17 >  25.93
|   |   |   |   |   |   |   |   |--- weights: [0.00, 4.00] class: 1
|   |   |   |   |   |   |--- feature_9 >  24.88
|   |   |   |   |   |   |   |--- feature_5 <= 25.94
|   |   |   |   |   |   |   |   |--- feature_13 <= 24.94
|   |   |   |   |   |   |   |   |   |--- feature_15 <= 25.70
|   |   |   |   |   |   |   |   |   |   |--- feature_23 <= 26.55
|   |   |   |   |   |   |   |   |   |   |   |--- feature_5 <= 25.89
|   |   |   |   |   |   |   |   |   |   |   |   |--- feature_42 <= 24.20
|   |   |   |   |   |   |   |   |   |   |   |   |   |--- weights: [0.00, 1.00] class: 1
|   |   |   |   |   |   |   |   |   |   |   |   |--- feature_42 >  24.20
|   |   |   |   |   |   |   |   |   |   |   |   |   |--- feature_22 <= 26.68
|   |   |   |   |   |   |   |   |   |   |   |   |   |   |--- feature_17 <= 26.11
|   |   |   |   |   |   |   |   |   |   |   |   |   |   |   |--- feature_24 <= 26.00
|   |   |   |   |   |   |   |   |   |   |   |   |   |   |   |   |--- feature_5 <= 25.81
|   |   |   |   |   |   |   |   |   |   |   |   |   |   |   |   |   |--- weights: [864.00, 0.00] class: 0
|   |   |   |   |   |   |   |   |   |   |   |   |   |   |   |   |--- feature_5 >  25.81
|   |   |   |   |   |   |   |   |   |   |   |   |   |   |   |   |   |--- feature_5 <= 25.81
|   |   |   |   |   |   |   |   |   |   |   |   |   |   |   |   |   |   |--- weights: [0.00, 1.00] class: 1
|   |   |   |   |   |   |   |   |   |   |   |   |   |   |   |   |   |--- feature_5 >  25.81
|   |   |   |   |   |   |   |   |   |   |   |   |   |   |   |   |   |   |--- weights: [56.00, 0.00] class: 0
|   |   |   |   |   |   |   |   |   |   |   |   |   |   |   |--- feature_24 >  26.00
|   |   |   |   |   |   |   |   |   |   |   |   |   |   |   |   |--- feature_7 <= 25.73
|   |   |   |   |   |   |   |   |   |   |   |   |   |   |   |   |   |--- weights: [17.00, 0.00] class: 0
|   |   |   |   |   |   |   |   |   |   |   |   |   |   |   |   |--- feature_7 >  25.73
|   |   |   |   |   |   |   |   |   |   |   |   |   |   |   |   |   |--- weights: [0.00, 1.00] class: 1
|   |   |   |   |   |   |   |   |   |   |   |   |   |   |--- feature_17 >  26.11
|   |   |   |   |   |   |   |   |   |   |   |   |   |   |   |--- weights: [0.00, 1.00] class: 1
|   |   |   |   |   |   |   |   |   |   |   |   |   |--- feature_22 >  26.68
|   |   |   |   |   |   |   |   |   |   |   |   |   |   |--- weights: [0.00, 1.00] class: 1
|   |   |   |   |   |   |   |   |   |   |   |--- feature_5 >  25.89
|   |   |   |   |   |   |   |   |   |   |   |   |--- feature_8 <= 25.14
|   |   |   |   |   |   |   |   |   |   |   |   |   |--- weights: [0.00, 5.00] class: 1
|   |   |   |   |   |   |   |   |   |   |   |   |--- feature_8 >  25.14
|   |   |   |   |   |   |   |   |   |   |   |   |   |--- weights: [18.00, 0.00] class: 0
|   |   |   |   |   |   |   |   |   |   |--- feature_23 >  26.55
|   |   |   |   |   |   |   |   |   |   |   |--- feature_8 <= 25.08
|   |   |   |   |   |   |   |   |   |   |   |   |--- weights: [1.00, 0.00] class: 0
|   |   |   |   |   |   |   |   |   |   |   |--- feature_8 >  25.08
|   |   |   |   |   |   |   |   |   |   |   |   |--- weights: [0.00, 4.00] class: 1
|   |   |   |   |   |   |   |   |   |--- feature_15 >  25.70
|   |   |   |   |   |   |   |   |   |   |--- feature_10 <= 25.56
|   |   |   |   |   |   |   |   |   |   |   |--- weights: [0.00, 7.00] class: 1
|   |   |   |   |   |   |   |   |   |   |--- feature_10 >  25.56
|   |   |   |   |   |   |   |   |   |   |   |--- weights: [2.00, 0.00] class: 0
|   |   |   |   |   |   |   |   |--- feature_13 >  24.94
|   |   |   |   |   |   |   |   |   |--- feature_36 <= 25.77
|   |   |   |   |   |   |   |   |   |   |--- feature_48 <= 25.36
|   |   |   |   |   |   |   |   |   |   |   |--- feature_10 <= 24.61
|   |   |   |   |   |   |   |   |   |   |   |   |--- feature_49 <= 25.07
|   |   |   |   |   |   |   |   |   |   |   |   |   |--- weights: [1.00, 0.00] class: 0
|   |   |   |   |   |   |   |   |   |   |   |   |--- feature_49 >  25.07
|   |   |   |   |   |   |   |   |   |   |   |   |   |--- weights: [0.00, 6.00] class: 1
|   |   |   |   |   |   |   |   |   |   |   |--- feature_10 >  24.61
|   |   |   |   |   |   |   |   |   |   |   |   |--- feature_36 <= 25.48
|   |   |   |   |   |   |   |   |   |   |   |   |   |--- weights: [80.00, 0.00] class: 0
|   |   |   |   |   |   |   |   |   |   |   |   |--- feature_36 >  25.48
|   |   |   |   |   |   |   |   |   |   |   |   |   |--- feature_28 <= 25.16
|   |   |   |   |   |   |   |   |   |   |   |   |   |   |--- weights: [0.00, 6.00] class: 1
|   |   |   |   |   |   |   |   |   |   |   |   |   |--- feature_28 >  25.16
|   |   |   |   |   |   |   |   |   |   |   |   |   |   |--- weights: [3.00, 0.00] class: 0
|   |   |   |   |   |   |   |   |   |   |--- feature_48 >  25.36
|   |   |   |   |   |   |   |   |   |   |   |--- feature_49 <= 25.51
|   |   |   |   |   |   |   |   |   |   |   |   |--- feature_16 <= 24.63
|   |   |   |   |   |   |   |   |   |   |   |   |   |--- feature_6 <= 25.66
|   |   |   |   |   |   |   |   |   |   |   |   |   |   |--- weights: [14.00, 0.00] class: 0
|   |   |   |   |   |   |   |   |   |   |   |   |   |--- feature_6 >  25.66
|   |   |   |   |   |   |   |   |   |   |   |   |   |   |--- weights: [0.00, 2.00] class: 1
|   |   |   |   |   |   |   |   |   |   |   |   |--- feature_16 >  24.63
|   |   |   |   |   |   |   |   |   |   |   |   |   |--- feature_40 <= 24.69
|   |   |   |   |   |   |   |   |   |   |   |   |   |   |--- weights: [7.00, 0.00] class: 0
|   |   |   |   |   |   |   |   |   |   |   |   |   |--- feature_40 >  24.69
|   |   |   |   |   |   |   |   |   |   |   |   |   |   |--- feature_19 <= 25.78
|   |   |   |   |   |   |   |   |   |   |   |   |   |   |   |--- feature_36 <= 24.92
|   |   |   |   |   |   |   |   |   |   |   |   |   |   |   |   |--- weights: [4.00, 0.00] class: 0
|   |   |   |   |   |   |   |   |   |   |   |   |   |   |   |--- feature_36 >  24.92
|   |   |   |   |   |   |   |   |   |   |   |   |   |   |   |   |--- feature_43 <= 25.87
|   |   |   |   |   |   |   |   |   |   |   |   |   |   |   |   |   |--- feature_46 <= 25.92
|   |   |   |   |   |   |   |   |   |   |   |   |   |   |   |   |   |   |--- feature_17 <= 24.37
|   |   |   |   |   |   |   |   |   |   |   |   |   |   |   |   |   |   |   |--- weights: [2.00, 0.00] class: 0
|   |   |   |   |   |   |   |   |   |   |   |   |   |   |   |   |   |   |--- feature_17 >  24.37
|   |   |   |   |   |   |   |   |   |   |   |   |   |   |   |   |   |   |   |--- feature_38 <= 25.00
|   |   |   |   |   |   |   |   |   |   |   |   |   |   |   |   |   |   |   |   |--- feature_45 <= 25.15
|   |   |   |   |   |   |   |   |   |   |   |   |   |   |   |   |   |   |   |   |   |--- weights: [0.00, 6.00] class: 1
|   |   |   |   |   |   |   |   |   |   |   |   |   |   |   |   |   |   |   |   |--- feature_45 >  25.15
|   |   |   |   |   |   |   |   |   |   |   |   |   |   |   |   |   |   |   |   |   |--- feature_30 <= 24.72
|   |   |   |   |   |   |   |   |   |   |   |   |   |   |   |   |   |   |   |   |   |   |--- weights: [0.00, 1.00] class: 1
|   |   |   |   |   |   |   |   |   |   |   |   |   |   |   |   |   |   |   |   |   |--- feature_30 >  24.72
|   |   |   |   |   |   |   |   |   |   |   |   |   |   |   |   |   |   |   |   |   |   |--- weights: [4.00, 0.00] class: 0
|   |   |   |   |   |   |   |   |   |   |   |   |   |   |   |   |   |   |   |--- feature_38 >  25.00
|   |   |   |   |   |   |   |   |   |   |   |   |   |   |   |   |   |   |   |   |--- feature_19 <= 24.51
|   |   |   |   |   |   |   |   |   |   |   |   |   |   |   |   |   |   |   |   |   |--- weights: [1.00, 0.00] class: 0
|   |   |   |   |   |   |   |   |   |   |   |   |   |   |   |   |   |   |   |   |--- feature_19 >  24.51
|   |   |   |   |   |   |   |   |   |   |   |   |   |   |   |   |   |   |   |   |   |--- weights: [0.00, 75.00] class: 1
|   |   |   |   |   |   |   |   |   |   |   |   |   |   |   |   |   |--- feature_46 >  25.92
|   |   |   |   |   |   |   |   |   |   |   |   |   |   |   |   |   |   |--- weights: [3.00, 0.00] class: 0
|   |   |   |   |   |   |   |   |   |   |   |   |   |   |   |   |--- feature_43 >  25.87
|   |   |   |   |   |   |   |   |   |   |   |   |   |   |   |   |   |--- feature_23 <= 24.98
|   |   |   |   |   |   |   |   |   |   |   |   |   |   |   |   |   |   |--- weights: [0.00, 1.00] class: 1
|   |   |   |   |   |   |   |   |   |   |   |   |   |   |   |   |   |--- feature_23 >  24.98
|   |   |   |   |   |   |   |   |   |   |   |   |   |   |   |   |   |   |--- weights: [5.00, 0.00] class: 0
|   |   |   |   |   |   |   |   |   |   |   |   |   |   |--- feature_19 >  25.78
|   |   |   |   |   |   |   |   |   |   |   |   |   |   |   |--- weights: [5.00, 0.00] class: 0
|   |   |   |   |   |   |   |   |   |   |   |--- feature_49 >  25.51
|   |   |   |   |   |   |   |   |   |   |   |   |--- feature_41 <= 25.25
|   |   |   |   |   |   |   |   |   |   |   |   |   |--- feature_5 <= 25.03
|   |   |   |   |   |   |   |   |   |   |   |   |   |   |--- weights: [1.00, 0.00] class: 0
|   |   |   |   |   |   |   |   |   |   |   |   |   |--- feature_5 >  25.03
|   |   |   |   |   |   |   |   |   |   |   |   |   |   |--- weights: [0.00, 3.00] class: 1
|   |   |   |   |   |   |   |   |   |   |   |   |--- feature_41 >  25.25
|   |   |   |   |   |   |   |   |   |   |   |   |   |--- feature_39 <= 24.57
|   |   |   |   |   |   |   |   |   |   |   |   |   |   |--- weights: [0.00, 1.00] class: 1
|   |   |   |   |   |   |   |   |   |   |   |   |   |--- feature_39 >  24.57
|   |   |   |   |   |   |   |   |   |   |   |   |   |   |--- weights: [34.00, 0.00] class: 0
|   |   |   |   |   |   |   |   |   |--- feature_36 >  25.77
|   |   |   |   |   |   |   |   |   |   |--- feature_8 <= 25.87
|   |   |   |   |   |   |   |   |   |   |   |--- feature_38 <= 24.68
|   |   |   |   |   |   |   |   |   |   |   |   |--- weights: [0.00, 1.00] class: 1
|   |   |   |   |   |   |   |   |   |   |   |--- feature_38 >  24.68
|   |   |   |   |   |   |   |   |   |   |   |   |--- feature_41 <= 24.64
|   |   |   |   |   |   |   |   |   |   |   |   |   |--- weights: [0.00, 1.00] class: 1
|   |   |   |   |   |   |   |   |   |   |   |   |--- feature_41 >  24.64
|   |   |   |   |   |   |   |   |   |   |   |   |   |--- weights: [148.00, 0.00] class: 0
|   |   |   |   |   |   |   |   |   |   |--- feature_8 >  25.87
|   |   |   |   |   |   |   |   |   |   |   |--- feature_22 <= 25.77
|   |   |   |   |   |   |   |   |   |   |   |   |--- weights: [0.00, 4.00] class: 1
|   |   |   |   |   |   |   |   |   |   |   |--- feature_22 >  25.77
|   |   |   |   |   |   |   |   |   |   |   |   |--- weights: [2.00, 0.00] class: 0
|   |   |   |   |   |   |   |--- feature_5 >  25.94
|   |   |   |   |   |   |   |   |--- feature_1 <= 25.44
|   |   |   |   |   |   |   |   |   |--- feature_15 <= 25.22
|   |   |   |   |   |   |   |   |   |   |--- feature_25 <= 25.49
|   |   |   |   |   |   |   |   |   |   |   |--- weights: [33.00, 0.00] class: 0
|   |   |   |   |   |   |   |   |   |   |--- feature_25 >  25.49
|   |   |   |   |   |   |   |   |   |   |   |--- weights: [0.00, 1.00] class: 1
|   |   |   |   |   |   |   |   |   |--- feature_15 >  25.22
|   |   |   |   |   |   |   |   |   |   |--- feature_22 <= 25.70
|   |   |   |   |   |   |   |   |   |   |   |--- weights: [0.00, 5.00] class: 1
|   |   |   |   |   |   |   |   |   |   |--- feature_22 >  25.70
|   |   |   |   |   |   |   |   |   |   |   |--- weights: [1.00, 0.00] class: 0
|   |   |   |   |   |   |   |   |--- feature_1 >  25.44
|   |   |   |   |   |   |   |   |   |--- feature_0 <= 24.56
|   |   |   |   |   |   |   |   |   |   |--- weights: [5.00, 0.00] class: 0
|   |   |   |   |   |   |   |   |   |--- feature_0 >  24.56
|   |   |   |   |   |   |   |   |   |   |--- weights: [0.00, 60.00] class: 1
|   |   |   |   |   |--- feature_14 >  25.93
|   |   |   |   |   |   |--- feature_44 <= 25.36
|   |   |   |   |   |   |   |--- feature_35 <= 25.50
|   |   |   |   |   |   |   |   |--- feature_1 <= 24.55
|   |   |   |   |   |   |   |   |   |--- weights: [0.00, 2.00] class: 1
|   |   |   |   |   |   |   |   |--- feature_1 >  24.55
|   |   |   |   |   |   |   |   |   |--- weights: [39.00, 0.00] class: 0
|   |   |   |   |   |   |   |--- feature_35 >  25.50
|   |   |   |   |   |   |   |   |--- weights: [0.00, 6.00] class: 1
|   |   |   |   |   |   |--- feature_44 >  25.36
|   |   |   |   |   |   |   |--- weights: [0.00, 42.00] class: 1
|   |   |   |   |--- feature_19 >  26.05
|   |   |   |   |   |--- feature_2 <= 24.39
|   |   |   |   |   |   |--- weights: [4.00, 0.00] class: 0
|   |   |   |   |   |--- feature_2 >  24.39
|   |   |   |   |   |   |--- feature_24 <= 25.44
|   |   |   |   |   |   |   |--- weights: [1.00, 0.00] class: 0
|   |   |   |   |   |   |--- feature_24 >  25.44
|   |   |   |   |   |   |   |--- weights: [0.00, 60.00] class: 1
|   |   |   |--- feature_3 >  26.36
|   |   |   |   |--- weights: [0.00, 80.00] class: 1
|   |   |--- feature_13 >  25.37
|   |   |   |--- feature_38 <= 25.12
|   |   |   |   |--- feature_20 <= 25.64
|   |   |   |   |   |--- feature_30 <= 25.67
|   |   |   |   |   |   |--- feature_40 <= 25.65
|   |   |   |   |   |   |   |--- feature_31 <= 25.82
|   |   |   |   |   |   |   |   |--- feature_5 <= 26.27
|   |   |   |   |   |   |   |   |   |--- feature_30 <= 25.53
|   |   |   |   |   |   |   |   |   |   |--- weights: [229.00, 0.00] class: 0
|   |   |   |   |   |   |   |   |   |--- feature_30 >  25.53
|   |   |   |   |   |   |   |   |   |   |--- feature_30 <= 25.55
|   |   |   |   |   |   |   |   |   |   |   |--- weights: [0.00, 1.00] class: 1
|   |   |   |   |   |   |   |   |   |   |--- feature_30 >  25.55
|   |   |   |   |   |   |   |   |   |   |   |--- weights: [3.00, 0.00] class: 0
|   |   |   |   |   |   |   |   |--- feature_5 >  26.27
|   |   |   |   |   |   |   |   |   |--- feature_35 <= 25.68
|   |   |   |   |   |   |   |   |   |   |--- weights: [0.00, 1.00] class: 1
|   |   |   |   |   |   |   |   |   |--- feature_35 >  25.68
|   |   |   |   |   |   |   |   |   |   |--- weights: [1.00, 0.00] class: 0
|   |   |   |   |   |   |   |--- feature_31 >  25.82
|   |   |   |   |   |   |   |   |--- weights: [0.00, 1.00] class: 1
|   |   |   |   |   |   |--- feature_40 >  25.65
|   |   |   |   |   |   |   |--- feature_4 <= 25.53
|   |   |   |   |   |   |   |   |--- feature_42 <= 25.13
|   |   |   |   |   |   |   |   |   |--- weights: [1.00, 0.00] class: 0
|   |   |   |   |   |   |   |   |--- feature_42 >  25.13
|   |   |   |   |   |   |   |   |   |--- weights: [0.00, 5.00] class: 1
|   |   |   |   |   |   |   |--- feature_4 >  25.53
|   |   |   |   |   |   |   |   |--- weights: [6.00, 0.00] class: 0
|   |   |   |   |   |--- feature_30 >  25.67
|   |   |   |   |   |   |--- feature_27 <= 25.45
|   |   |   |   |   |   |   |--- weights: [0.00, 8.00] class: 1
|   |   |   |   |   |   |--- feature_27 >  25.45
|   |   |   |   |   |   |   |--- weights: [6.00, 0.00] class: 0
|   |   |   |   |--- feature_20 >  25.64
|   |   |   |   |   |--- feature_33 <= 25.25
|   |   |   |   |   |   |--- weights: [8.00, 0.00] class: 0
|   |   |   |   |   |--- feature_33 >  25.25
|   |   |   |   |   |   |--- feature_4 <= 24.83
|   |   |   |   |   |   |   |--- weights: [1.00, 0.00] class: 0
|   |   |   |   |   |   |--- feature_4 >  24.83
|   |   |   |   |   |   |   |--- weights: [0.00, 26.00] class: 1
|   |   |   |--- feature_38 >  25.12
|   |   |   |   |--- feature_8 <= 25.16
|   |   |   |   |   |--- feature_5 <= 25.12
|   |   |   |   |   |   |--- feature_21 <= 25.95
|   |   |   |   |   |   |   |--- feature_43 <= 25.05
|   |   |   |   |   |   |   |   |--- feature_40 <= 25.01
|   |   |   |   |   |   |   |   |   |--- weights: [1.00, 0.00] class: 0
|   |   |   |   |   |   |   |   |--- feature_40 >  25.01
|   |   |   |   |   |   |   |   |   |--- weights: [0.00, 3.00] class: 1
|   |   |   |   |   |   |   |--- feature_43 >  25.05
|   |   |   |   |   |   |   |   |--- feature_42 <= 26.21
|   |   |   |   |   |   |   |   |   |--- weights: [130.00, 0.00] class: 0
|   |   |   |   |   |   |   |   |--- feature_42 >  26.21
|   |   |   |   |   |   |   |   |   |--- weights: [0.00, 1.00] class: 1
|   |   |   |   |   |   |--- feature_21 >  25.95
|   |   |   |   |   |   |   |--- weights: [0.00, 8.00] class: 1
|   |   |   |   |   |--- feature_5 >  25.12
|   |   |   |   |   |   |--- feature_32 <= 26.08
|   |   |   |   |   |   |   |--- feature_31 <= 25.50
|   |   |   |   |   |   |   |   |--- feature_18 <= 25.21
|   |   |   |   |   |   |   |   |   |--- feature_43 <= 25.75
|   |   |   |   |   |   |   |   |   |   |--- weights: [10.00, 0.00] class: 0
|   |   |   |   |   |   |   |   |   |--- feature_43 >  25.75
|   |   |   |   |   |   |   |   |   |   |--- weights: [0.00, 1.00] class: 1
|   |   |   |   |   |   |   |   |--- feature_18 >  25.21
|   |   |   |   |   |   |   |   |   |--- feature_44 <= 25.41
|   |   |   |   |   |   |   |   |   |   |--- weights: [1.00, 0.00] class: 0
|   |   |   |   |   |   |   |   |   |--- feature_44 >  25.41
|   |   |   |   |   |   |   |   |   |   |--- weights: [0.00, 7.00] class: 1
|   |   |   |   |   |   |   |--- feature_31 >  25.50
|   |   |   |   |   |   |   |   |--- feature_40 <= 24.64
|   |   |   |   |   |   |   |   |   |--- weights: [1.00, 0.00] class: 0
|   |   |   |   |   |   |   |   |--- feature_40 >  24.64
|   |   |   |   |   |   |   |   |   |--- feature_45 <= 24.82
|   |   |   |   |   |   |   |   |   |   |--- weights: [1.00, 0.00] class: 0
|   |   |   |   |   |   |   |   |   |--- feature_45 >  24.82
|   |   |   |   |   |   |   |   |   |   |--- weights: [0.00, 41.00] class: 1
|   |   |   |   |   |   |--- feature_32 >  26.08
|   |   |   |   |   |   |   |--- weights: [20.00, 0.00] class: 0
|   |   |   |   |--- feature_8 >  25.16
|   |   |   |   |   |--- feature_24 <= 24.76
|   |   |   |   |   |   |--- weights: [16.00, 0.00] class: 0
|   |   |   |   |   |--- feature_24 >  24.76
|   |   |   |   |   |   |--- feature_29 <= 25.11
|   |   |   |   |   |   |   |--- feature_47 <= 25.06
|   |   |   |   |   |   |   |   |--- weights: [0.00, 13.00] class: 1
|   |   |   |   |   |   |   |--- feature_47 >  25.06
|   |   |   |   |   |   |   |   |--- feature_44 <= 25.73
|   |   |   |   |   |   |   |   |   |--- feature_5 <= 25.55
|   |   |   |   |   |   |   |   |   |   |--- weights: [25.00, 0.00] class: 0
|   |   |   |   |   |   |   |   |   |--- feature_5 >  25.55
|   |   |   |   |   |   |   |   |   |   |--- feature_6 <= 25.49
|   |   |   |   |   |   |   |   |   |   |   |--- weights: [2.00, 0.00] class: 0
|   |   |   |   |   |   |   |   |   |   |--- feature_6 >  25.49
|   |   |   |   |   |   |   |   |   |   |   |--- weights: [0.00, 5.00] class: 1
|   |   |   |   |   |   |   |   |--- feature_44 >  25.73
|   |   |   |   |   |   |   |   |   |--- weights: [0.00, 6.00] class: 1
|   |   |   |   |   |   |--- feature_29 >  25.11
|   |   |   |   |   |   |   |--- feature_46 <= 25.85
|   |   |   |   |   |   |   |   |--- feature_27 <= 24.79
|   |   |   |   |   |   |   |   |   |--- feature_6 <= 25.31
|   |   |   |   |   |   |   |   |   |   |--- weights: [5.00, 0.00] class: 0
|   |   |   |   |   |   |   |   |   |--- feature_6 >  25.31
|   |   |   |   |   |   |   |   |   |   |--- weights: [0.00, 2.00] class: 1
|   |   |   |   |   |   |   |   |--- feature_27 >  24.79
|   |   |   |   |   |   |   |   |   |--- feature_45 <= 24.82
|   |   |   |   |   |   |   |   |   |   |--- weights: [3.00, 0.00] class: 0
|   |   |   |   |   |   |   |   |   |--- feature_45 >  24.82
|   |   |   |   |   |   |   |   |   |   |--- feature_49 <= 25.90
|   |   |   |   |   |   |   |   |   |   |   |--- feature_26 <= 24.53
|   |   |   |   |   |   |   |   |   |   |   |   |--- weights: [1.00, 0.00] class: 0
|   |   |   |   |   |   |   |   |   |   |   |--- feature_26 >  24.53
|   |   |   |   |   |   |   |   |   |   |   |   |--- feature_47 <= 24.53
|   |   |   |   |   |   |   |   |   |   |   |   |   |--- weights: [1.00, 0.00] class: 0
|   |   |   |   |   |   |   |   |   |   |   |   |--- feature_47 >  24.53
|   |   |   |   |   |   |   |   |   |   |   |   |   |--- feature_4 <= 26.56
|   |   |   |   |   |   |   |   |   |   |   |   |   |   |--- feature_12 <= 25.14
|   |   |   |   |   |   |   |   |   |   |   |   |   |   |   |--- weights: [0.00, 288.00] class: 1
|   |   |   |   |   |   |   |   |   |   |   |   |   |   |--- feature_12 >  25.14
|   |   |   |   |   |   |   |   |   |   |   |   |   |   |   |--- feature_28 <= 25.37
|   |   |   |   |   |   |   |   |   |   |   |   |   |   |   |   |--- weights: [2.00, 0.00] class: 0
|   |   |   |   |   |   |   |   |   |   |   |   |   |   |   |--- feature_28 >  25.37
|   |   |   |   |   |   |   |   |   |   |   |   |   |   |   |   |--- weights: [0.00, 3.00] class: 1
|   |   |   |   |   |   |   |   |   |   |   |   |   |--- feature_4 >  26.56
|   |   |   |   |   |   |   |   |   |   |   |   |   |   |--- weights: [1.00, 0.00] class: 0
|   |   |   |   |   |   |   |   |   |   |--- feature_49 >  25.90
|   |   |   |   |   |   |   |   |   |   |   |--- weights: [2.00, 0.00] class: 0
|   |   |   |   |   |   |   |--- feature_46 >  25.85
|   |   |   |   |   |   |   |   |--- feature_36 <= 25.63
|   |   |   |   |   |   |   |   |   |--- weights: [0.00, 6.00] class: 1
|   |   |   |   |   |   |   |   |--- feature_36 >  25.63
|   |   |   |   |   |   |   |   |   |--- weights: [13.00, 0.00] class: 0
|   |--- feature_12 >  25.17
|   |   |--- feature_20 <= 25.39
|   |   |   |--- feature_21 <= 25.27
|   |   |   |   |--- feature_13 <= 25.76
|   |   |   |   |   |--- feature_24 <= 25.89
|   |   |   |   |   |   |--- feature_14 <= 25.91
|   |   |   |   |   |   |   |--- feature_9 <= 26.37
|   |   |   |   |   |   |   |   |--- feature_19 <= 25.92
|   |   |   |   |   |   |   |   |   |--- feature_5 <= 25.93
|   |   |   |   |   |   |   |   |   |   |--- feature_26 <= 25.72
|   |   |   |   |   |   |   |   |   |   |   |--- feature_20 <= 25.38
|   |   |   |   |   |   |   |   |   |   |   |   |--- feature_46 <= 25.93
|   |   |   |   |   |   |   |   |   |   |   |   |   |--- feature_41 <= 24.34
|   |   |   |   |   |   |   |   |   |   |   |   |   |   |--- weights: [0.00, 2.00] class: 1
|   |   |   |   |   |   |   |   |   |   |   |   |   |--- feature_41 >  24.34
|   |   |   |   |   |   |   |   |   |   |   |   |   |   |--- feature_25 <= 25.80
|   |   |   |   |   |   |   |   |   |   |   |   |   |   |   |--- feature_47 <= 26.26
|   |   |   |   |   |   |   |   |   |   |   |   |   |   |   |   |--- feature_45 <= 26.20
|   |   |   |   |   |   |   |   |   |   |   |   |   |   |   |   |   |--- feature_3 <= 26.14
|   |   |   |   |   |   |   |   |   |   |   |   |   |   |   |   |   |   |--- feature_0 <= 25.94
|   |   |   |   |   |   |   |   |   |   |   |   |   |   |   |   |   |   |   |--- feature_24 <= 25.89
|   |   |   |   |   |   |   |   |   |   |   |   |   |   |   |   |   |   |   |   |--- feature_45 <= 25.95
|   |   |   |   |   |   |   |   |   |   |   |   |   |   |   |   |   |   |   |   |   |--- feature_5 <= 25.87
|   |   |   |   |   |   |   |   |   |   |   |   |   |   |   |   |   |   |   |   |   |   |--- feature_11 <= 25.00
|   |   |   |   |   |   |   |   |   |   |   |   |   |   |   |   |   |   |   |   |   |   |   |--- weights: [696.00, 0.00] class: 0
|   |   |   |   |   |   |   |   |   |   |   |   |   |   |   |   |   |   |   |   |   |   |--- feature_11 >  25.00
|   |   |   |   |   |   |   |   |   |   |   |   |   |   |   |   |   |   |   |   |   |   |   |--- feature_11 <= 25.00
|   |   |   |   |   |   |   |   |   |   |   |   |   |   |   |   |   |   |   |   |   |   |   |   |--- weights: [0.00, 1.00] class: 1
|   |   |   |   |   |   |   |   |   |   |   |   |   |   |   |   |   |   |   |   |   |   |   |--- feature_11 >  25.00
|   |   |   |   |   |   |   |   |   |   |   |   |   |   |   |   |   |   |   |   |   |   |   |   |--- weights: [32.00, 0.00] class: 0
|   |   |   |   |   |   |   |   |   |   |   |   |   |   |   |   |   |   |   |   |   |--- feature_5 >  25.87
|   |   |   |   |   |   |   |   |   |   |   |   |   |   |   |   |   |   |   |   |   |   |--- feature_17 <= 25.56
|   |   |   |   |   |   |   |   |   |   |   |   |   |   |   |   |   |   |   |   |   |   |   |--- weights: [6.00, 0.00] class: 0
|   |   |   |   |   |   |   |   |   |   |   |   |   |   |   |   |   |   |   |   |   |   |--- feature_17 >  25.56
|   |   |   |   |   |   |   |   |   |   |   |   |   |   |   |   |   |   |   |   |   |   |   |--- weights: [0.00, 1.00] class: 1
|   |   |   |   |   |   |   |   |   |   |   |   |   |   |   |   |   |   |   |   |--- feature_45 >  25.95
|   |   |   |   |   |   |   |   |   |   |   |   |   |   |   |   |   |   |   |   |   |--- feature_3 <= 24.69
|   |   |   |   |   |   |   |   |   |   |   |   |   |   |   |   |   |   |   |   |   |   |--- weights: [0.00, 1.00] class: 1
|   |   |   |   |   |   |   |   |   |   |   |   |   |   |   |   |   |   |   |   |   |--- feature_3 >  24.69
|   |   |   |   |   |   |   |   |   |   |   |   |   |   |   |   |   |   |   |   |   |   |--- weights: [3.00, 0.00] class: 0
|   |   |   |   |   |   |   |   |   |   |   |   |   |   |   |   |   |   |   |--- feature_24 >  25.89
|   |   |   |   |   |   |   |   |   |   |   |   |   |   |   |   |   |   |   |   |--- feature_8 <= 25.60
|   |   |   |   |   |   |   |   |   |   |   |   |   |   |   |   |   |   |   |   |   |--- weights: [2.00, 0.00] class: 0
|   |   |   |   |   |   |   |   |   |   |   |   |   |   |   |   |   |   |   |   |--- feature_8 >  25.60
|   |   |   |   |   |   |   |   |   |   |   |   |   |   |   |   |   |   |   |   |   |--- weights: [0.00, 1.00] class: 1
|   |   |   |   |   |   |   |   |   |   |   |   |   |   |   |   |   |   |--- feature_0 >  25.94
|   |   |   |   |   |   |   |   |   |   |   |   |   |   |   |   |   |   |   |--- feature_15 <= 25.63
|   |   |   |   |   |   |   |   |   |   |   |   |   |   |   |   |   |   |   |   |--- weights: [8.00, 0.00] class: 0
|   |   |   |   |   |   |   |   |   |   |   |   |   |   |   |   |   |   |   |--- feature_15 >  25.63
|   |   |   |   |   |   |   |   |   |   |   |   |   |   |   |   |   |   |   |   |--- weights: [0.00, 2.00] class: 1
|   |   |   |   |   |   |   |   |   |   |   |   |   |   |   |   |   |--- feature_3 >  26.14
|   |   |   |   |   |   |   |   |   |   |   |   |   |   |   |   |   |   |--- feature_47 <= 25.56
|   |   |   |   |   |   |   |   |   |   |   |   |   |   |   |   |   |   |   |--- weights: [1.00, 0.00] class: 0
|   |   |   |   |   |   |   |   |   |   |   |   |   |   |   |   |   |   |--- feature_47 >  25.56
|   |   |   |   |   |   |   |   |   |   |   |   |   |   |   |   |   |   |   |--- weights: [0.00, 1.00] class: 1
|   |   |   |   |   |   |   |   |   |   |   |   |   |   |   |   |--- feature_45 >  26.20
|   |   |   |   |   |   |   |   |   |   |   |   |   |   |   |   |   |--- weights: [0.00, 1.00] class: 1
|   |   |   |   |   |   |   |   |   |   |   |   |   |   |   |--- feature_47 >  26.26
|   |   |   |   |   |   |   |   |   |   |   |   |   |   |   |   |--- feature_41 <= 25.39
|   |   |   |   |   |   |   |   |   |   |   |   |   |   |   |   |   |--- weights: [0.00, 2.00] class: 1
|   |   |   |   |   |   |   |   |   |   |   |   |   |   |   |   |--- feature_41 >  25.39
|   |   |   |   |   |   |   |   |   |   |   |   |   |   |   |   |   |--- weights: [1.00, 0.00] class: 0
|   |   |   |   |   |   |   |   |   |   |   |   |   |   |--- feature_25 >  25.80
|   |   |   |   |   |   |   |   |   |   |   |   |   |   |   |--- feature_40 <= 25.26
|   |   |   |   |   |   |   |   |   |   |   |   |   |   |   |   |--- weights: [0.00, 4.00] class: 1
|   |   |   |   |   |   |   |   |   |   |   |   |   |   |   |--- feature_40 >  25.26
|   |   |   |   |   |   |   |   |   |   |   |   |   |   |   |   |--- weights: [6.00, 0.00] class: 0
|   |   |   |   |   |   |   |   |   |   |   |   |--- feature_46 >  25.93
|   |   |   |   |   |   |   |   |   |   |   |   |   |--- feature_37 <= 25.27
|   |   |   |   |   |   |   |   |   |   |   |   |   |   |--- weights: [2.00, 0.00] class: 0
|   |   |   |   |   |   |   |   |   |   |   |   |   |--- feature_37 >  25.27
|   |   |   |   |   |   |   |   |   |   |   |   |   |   |--- weights: [0.00, 4.00] class: 1
|   |   |   |   |   |   |   |   |   |   |   |--- feature_20 >  25.38
|   |   |   |   |   |   |   |   |   |   |   |   |--- weights: [0.00, 3.00] class: 1
|   |   |   |   |   |   |   |   |   |   |--- feature_26 >  25.72
|   |   |   |   |   |   |   |   |   |   |   |--- feature_42 <= 24.98
|   |   |   |   |   |   |   |   |   |   |   |   |--- weights: [0.00, 16.00] class: 1
|   |   |   |   |   |   |   |   |   |   |   |--- feature_42 >  24.98
|   |   |   |   |   |   |   |   |   |   |   |   |--- feature_29 <= 24.92
|   |   |   |   |   |   |   |   |   |   |   |   |   |--- feature_48 <= 24.96
|   |   |   |   |   |   |   |   |   |   |   |   |   |   |--- weights: [1.00, 0.00] class: 0
|   |   |   |   |   |   |   |   |   |   |   |   |   |--- feature_48 >  24.96
|   |   |   |   |   |   |   |   |   |   |   |   |   |   |--- weights: [0.00, 3.00] class: 1
|   |   |   |   |   |   |   |   |   |   |   |   |--- feature_29 >  24.92
|   |   |   |   |   |   |   |   |   |   |   |   |   |--- weights: [52.00, 0.00] class: 0
|   |   |   |   |   |   |   |   |   |--- feature_5 >  25.93
|   |   |   |   |   |   |   |   |   |   |--- feature_43 <= 25.28
|   |   |   |   |   |   |   |   |   |   |   |--- weights: [0.00, 9.00] class: 1
|   |   |   |   |   |   |   |   |   |   |--- feature_43 >  25.28
|   |   |   |   |   |   |   |   |   |   |   |--- weights: [6.00, 0.00] class: 0
|   |   |   |   |   |   |   |   |--- feature_19 >  25.92
|   |   |   |   |   |   |   |   |   |--- weights: [0.00, 6.00] class: 1
|   |   |   |   |   |   |   |--- feature_9 >  26.37
|   |   |   |   |   |   |   |   |--- feature_29 <= 24.12
|   |   |   |   |   |   |   |   |   |--- weights: [1.00, 0.00] class: 0
|   |   |   |   |   |   |   |   |--- feature_29 >  24.12
|   |   |   |   |   |   |   |   |   |--- weights: [0.00, 8.00] class: 1
|   |   |   |   |   |   |--- feature_14 >  25.91
|   |   |   |   |   |   |   |--- feature_37 <= 25.57
|   |   |   |   |   |   |   |   |--- weights: [0.00, 18.00] class: 1
|   |   |   |   |   |   |   |--- feature_37 >  25.57
|   |   |   |   |   |   |   |   |--- weights: [4.00, 0.00] class: 0
|   |   |   |   |   |--- feature_24 >  25.89
|   |   |   |   |   |   |--- feature_5 <= 25.07
|   |   |   |   |   |   |   |--- feature_44 <= 25.06
|   |   |   |   |   |   |   |   |--- weights: [0.00, 1.00] class: 1
|   |   |   |   |   |   |   |--- feature_44 >  25.06
|   |   |   |   |   |   |   |   |--- weights: [9.00, 0.00] class: 0
|   |   |   |   |   |   |--- feature_5 >  25.07
|   |   |   |   |   |   |   |--- feature_10 <= 25.93
|   |   |   |   |   |   |   |   |--- weights: [0.00, 29.00] class: 1
|   |   |   |   |   |   |   |--- feature_10 >  25.93
|   |   |   |   |   |   |   |   |--- weights: [1.00, 0.00] class: 0
|   |   |   |   |--- feature_13 >  25.76
|   |   |   |   |   |--- feature_4 <= 25.29
|   |   |   |   |   |   |--- feature_38 <= 25.57
|   |   |   |   |   |   |   |--- feature_2 <= 24.89
|   |   |   |   |   |   |   |   |--- weights: [0.00, 2.00] class: 1
|   |   |   |   |   |   |   |--- feature_2 >  24.89
|   |   |   |   |   |   |   |   |--- weights: [14.00, 0.00] class: 0
|   |   |   |   |   |   |--- feature_38 >  25.57
|   |   |   |   |   |   |   |--- weights: [0.00, 7.00] class: 1
|   |   |   |   |   |--- feature_4 >  25.29
|   |   |   |   |   |   |--- feature_11 <= 24.64
|   |   |   |   |   |   |   |--- weights: [3.00, 0.00] class: 0
|   |   |   |   |   |   |--- feature_11 >  24.64
|   |   |   |   |   |   |   |--- feature_24 <= 24.38
|   |   |   |   |   |   |   |   |--- weights: [2.00, 0.00] class: 0
|   |   |   |   |   |   |   |--- feature_24 >  24.38
|   |   |   |   |   |   |   |   |--- feature_3 <= 24.65
|   |   |   |   |   |   |   |   |   |--- feature_16 <= 25.81
|   |   |   |   |   |   |   |   |   |   |--- weights: [0.00, 1.00] class: 1
|   |   |   |   |   |   |   |   |   |--- feature_16 >  25.81
|   |   |   |   |   |   |   |   |   |   |--- weights: [2.00, 0.00] class: 0
|   |   |   |   |   |   |   |   |--- feature_3 >  24.65
|   |   |   |   |   |   |   |   |   |--- feature_41 <= 25.99
|   |   |   |   |   |   |   |   |   |   |--- feature_39 <= 26.16
|   |   |   |   |   |   |   |   |   |   |   |--- weights: [0.00, 74.00] class: 1
|   |   |   |   |   |   |   |   |   |   |--- feature_39 >  26.16
|   |   |   |   |   |   |   |   |   |   |   |--- feature_7 <= 25.31
|   |   |   |   |   |   |   |   |   |   |   |   |--- weights: [0.00, 2.00] class: 1
|   |   |   |   |   |   |   |   |   |   |   |--- feature_7 >  25.31
|   |   |   |   |   |   |   |   |   |   |   |   |--- weights: [1.00, 0.00] class: 0
|   |   |   |   |   |   |   |   |   |--- feature_41 >  25.99
|   |   |   |   |   |   |   |   |   |   |--- weights: [1.00, 0.00] class: 0
|   |   |   |--- feature_21 >  25.27
|   |   |   |   |--- feature_32 <= 25.13
|   |   |   |   |   |--- feature_10 <= 24.81
|   |   |   |   |   |   |--- feature_37 <= 25.98
|   |   |   |   |   |   |   |--- weights: [0.00, 33.00] class: 1
|   |   |   |   |   |   |--- feature_37 >  25.98
|   |   |   |   |   |   |   |--- weights: [2.00, 0.00] class: 0
|   |   |   |   |   |--- feature_10 >  24.81
|   |   |   |   |   |   |--- feature_30 <= 25.49
|   |   |   |   |   |   |   |--- feature_18 <= 24.79
|   |   |   |   |   |   |   |   |--- weights: [0.00, 3.00] class: 1
|   |   |   |   |   |   |   |--- feature_18 >  24.79
|   |   |   |   |   |   |   |   |--- feature_47 <= 24.29
|   |   |   |   |   |   |   |   |   |--- feature_3 <= 24.61
|   |   |   |   |   |   |   |   |   |   |--- weights: [0.00, 5.00] class: 1
|   |   |   |   |   |   |   |   |   |--- feature_3 >  24.61
|   |   |   |   |   |   |   |   |   |   |--- weights: [6.00, 0.00] class: 0
|   |   |   |   |   |   |   |   |--- feature_47 >  24.29
|   |   |   |   |   |   |   |   |   |--- feature_22 <= 26.16
|   |   |   |   |   |   |   |   |   |   |--- weights: [209.00, 0.00] class: 0
|   |   |   |   |   |   |   |   |   |--- feature_22 >  26.16
|   |   |   |   |   |   |   |   |   |   |--- weights: [0.00, 1.00] class: 1
|   |   |   |   |   |   |--- feature_30 >  25.49
|   |   |   |   |   |   |   |--- feature_44 <= 25.52
|   |   |   |   |   |   |   |   |--- weights: [8.00, 0.00] class: 0
|   |   |   |   |   |   |   |--- feature_44 >  25.52
|   |   |   |   |   |   |   |   |--- weights: [0.00, 10.00] class: 1
|   |   |   |   |--- feature_32 >  25.13
|   |   |   |   |   |--- feature_33 <= 25.10
|   |   |   |   |   |   |--- feature_29 <= 25.45
|   |   |   |   |   |   |   |--- feature_25 <= 25.73
|   |   |   |   |   |   |   |   |--- feature_9 <= 24.41
|   |   |   |   |   |   |   |   |   |--- weights: [0.00, 1.00] class: 1
|   |   |   |   |   |   |   |   |--- feature_9 >  24.41
|   |   |   |   |   |   |   |   |   |--- weights: [89.00, 0.00] class: 0
|   |   |   |   |   |   |   |--- feature_25 >  25.73
|   |   |   |   |   |   |   |   |--- weights: [0.00, 4.00] class: 1
|   |   |   |   |   |   |--- feature_29 >  25.45
|   |   |   |   |   |   |   |--- weights: [0.00, 34.00] class: 1
|   |   |   |   |   |--- feature_33 >  25.10
|   |   |   |   |   |   |--- feature_30 <= 24.92
|   |   |   |   |   |   |   |--- feature_32 <= 25.99
|   |   |   |   |   |   |   |   |--- feature_14 <= 25.93
|   |   |   |   |   |   |   |   |   |--- weights: [52.00, 0.00] class: 0
|   |   |   |   |   |   |   |   |--- feature_14 >  25.93
|   |   |   |   |   |   |   |   |   |--- weights: [0.00, 2.00] class: 1
|   |   |   |   |   |   |   |--- feature_32 >  25.99
|   |   |   |   |   |   |   |   |--- feature_49 <= 25.20
|   |   |   |   |   |   |   |   |   |--- weights: [1.00, 0.00] class: 0
|   |   |   |   |   |   |   |   |--- feature_49 >  25.20
|   |   |   |   |   |   |   |   |   |--- weights: [0.00, 4.00] class: 1
|   |   |   |   |   |   |--- feature_30 >  24.92
|   |   |   |   |   |   |   |--- feature_12 <= 25.27
|   |   |   |   |   |   |   |   |--- feature_30 <= 25.50
|   |   |   |   |   |   |   |   |   |--- feature_33 <= 25.72
|   |   |   |   |   |   |   |   |   |   |--- feature_36 <= 25.02
|   |   |   |   |   |   |   |   |   |   |   |--- feature_17 <= 25.43
|   |   |   |   |   |   |   |   |   |   |   |   |--- weights: [1.00, 0.00] class: 0
|   |   |   |   |   |   |   |   |   |   |   |--- feature_17 >  25.43
|   |   |   |   |   |   |   |   |   |   |   |   |--- weights: [0.00, 2.00] class: 1
|   |   |   |   |   |   |   |   |   |   |--- feature_36 >  25.02
|   |   |   |   |   |   |   |   |   |   |   |--- weights: [42.00, 0.00] class: 0
|   |   |   |   |   |   |   |   |   |--- feature_33 >  25.72
|   |   |   |   |   |   |   |   |   |   |--- feature_28 <= 25.12
|   |   |   |   |   |   |   |   |   |   |   |--- weights: [1.00, 0.00] class: 0
|   |   |   |   |   |   |   |   |   |   |--- feature_28 >  25.12
|   |   |   |   |   |   |   |   |   |   |   |--- weights: [0.00, 6.00] class: 1
|   |   |   |   |   |   |   |   |--- feature_30 >  25.50
|   |   |   |   |   |   |   |   |   |--- feature_45 <= 25.48
|   |   |   |   |   |   |   |   |   |   |--- weights: [0.00, 14.00] class: 1
|   |   |   |   |   |   |   |   |   |--- feature_45 >  25.48
|   |   |   |   |   |   |   |   |   |   |--- feature_21 <= 25.63
|   |   |   |   |   |   |   |   |   |   |   |--- weights: [4.00, 0.00] class: 0
|   |   |   |   |   |   |   |   |   |   |--- feature_21 >  25.63
|   |   |   |   |   |   |   |   |   |   |   |--- weights: [0.00, 1.00] class: 1
|   |   |   |   |   |   |   |--- feature_12 >  25.27
|   |   |   |   |   |   |   |   |--- feature_43 <= 25.38
|   |   |   |   |   |   |   |   |   |--- feature_17 <= 26.11
|   |   |   |   |   |   |   |   |   |   |--- feature_25 <= 25.02
|   |   |   |   |   |   |   |   |   |   |   |--- feature_19 <= 25.52
|   |   |   |   |   |   |   |   |   |   |   |   |--- weights: [4.00, 0.00] class: 0
|   |   |   |   |   |   |   |   |   |   |   |--- feature_19 >  25.52
|   |   |   |   |   |   |   |   |   |   |   |   |--- weights: [0.00, 1.00] class: 1
|   |   |   |   |   |   |   |   |   |   |--- feature_25 >  25.02
|   |   |   |   |   |   |   |   |   |   |   |--- feature_9 <= 24.18
|   |   |   |   |   |   |   |   |   |   |   |   |--- weights: [1.00, 0.00] class: 0
|   |   |   |   |   |   |   |   |   |   |   |--- feature_9 >  24.18
|   |   |   |   |   |   |   |   |   |   |   |   |--- feature_28 <= 24.63
|   |   |   |   |   |   |   |   |   |   |   |   |   |--- weights: [1.00, 0.00] class: 0
|   |   |   |   |   |   |   |   |   |   |   |   |--- feature_28 >  24.63
|   |   |   |   |   |   |   |   |   |   |   |   |   |--- feature_47 <= 26.40
|   |   |   |   |   |   |   |   |   |   |   |   |   |   |--- feature_42 <= 24.58
|   |   |   |   |   |   |   |   |   |   |   |   |   |   |   |--- feature_25 <= 25.57
|   |   |   |   |   |   |   |   |   |   |   |   |   |   |   |   |--- weights: [1.00, 0.00] class: 0
|   |   |   |   |   |   |   |   |   |   |   |   |   |   |   |--- feature_25 >  25.57
|   |   |   |   |   |   |   |   |   |   |   |   |   |   |   |   |--- weights: [0.00, 1.00] class: 1
|   |   |   |   |   |   |   |   |   |   |   |   |   |   |--- feature_42 >  24.58
|   |   |   |   |   |   |   |   |   |   |   |   |   |   |   |--- feature_12 <= 25.29
|   |   |   |   |   |   |   |   |   |   |   |   |   |   |   |   |--- feature_17 <= 25.60
|   |   |   |   |   |   |   |   |   |   |   |   |   |   |   |   |   |--- weights: [0.00, 2.00] class: 1
|   |   |   |   |   |   |   |   |   |   |   |   |   |   |   |   |--- feature_17 >  25.60
|   |   |   |   |   |   |   |   |   |   |   |   |   |   |   |   |   |--- weights: [1.00, 0.00] class: 0
|   |   |   |   |   |   |   |   |   |   |   |   |   |   |   |--- feature_12 >  25.29
|   |   |   |   |   |   |   |   |   |   |   |   |   |   |   |   |--- feature_20 <= 25.38
|   |   |   |   |   |   |   |   |   |   |   |   |   |   |   |   |   |--- weights: [0.00, 293.00] class: 1
|   |   |   |   |   |   |   |   |   |   |   |   |   |   |   |   |--- feature_20 >  25.38
|   |   |   |   |   |   |   |   |   |   |   |   |   |   |   |   |   |--- feature_1 <= 25.64
|   |   |   |   |   |   |   |   |   |   |   |   |   |   |   |   |   |   |--- weights: [0.00, 5.00] class: 1
|   |   |   |   |   |   |   |   |   |   |   |   |   |   |   |   |   |--- feature_1 >  25.64
|   |   |   |   |   |   |   |   |   |   |   |   |   |   |   |   |   |   |--- weights: [1.00, 0.00] class: 0
|   |   |   |   |   |   |   |   |   |   |   |   |   |--- feature_47 >  26.40
|   |   |   |   |   |   |   |   |   |   |   |   |   |   |--- weights: [1.00, 0.00] class: 0
|   |   |   |   |   |   |   |   |   |--- feature_17 >  26.11
|   |   |   |   |   |   |   |   |   |   |--- weights: [8.00, 0.00] class: 0
|   |   |   |   |   |   |   |   |--- feature_43 >  25.38
|   |   |   |   |   |   |   |   |   |--- feature_45 <= 25.40
|   |   |   |   |   |   |   |   |   |   |--- feature_36 <= 25.16
|   |   |   |   |   |   |   |   |   |   |   |--- weights: [0.00, 10.00] class: 1
|   |   |   |   |   |   |   |   |   |   |--- feature_36 >  25.16
|   |   |   |   |   |   |   |   |   |   |   |--- feature_39 <= 25.04
|   |   |   |   |   |   |   |   |   |   |   |   |--- feature_7 <= 25.26
|   |   |   |   |   |   |   |   |   |   |   |   |   |--- weights: [1.00, 0.00] class: 0
|   |   |   |   |   |   |   |   |   |   |   |   |--- feature_7 >  25.26
|   |   |   |   |   |   |   |   |   |   |   |   |   |--- weights: [0.00, 5.00] class: 1
|   |   |   |   |   |   |   |   |   |   |   |--- feature_39 >  25.04
|   |   |   |   |   |   |   |   |   |   |   |   |--- feature_46 <= 25.65
|   |   |   |   |   |   |   |   |   |   |   |   |   |--- feature_23 <= 25.01
|   |   |   |   |   |   |   |   |   |   |   |   |   |   |--- weights: [0.00, 1.00] class: 1
|   |   |   |   |   |   |   |   |   |   |   |   |   |--- feature_23 >  25.01
|   |   |   |   |   |   |   |   |   |   |   |   |   |   |--- weights: [45.00, 0.00] class: 0
|   |   |   |   |   |   |   |   |   |   |   |   |--- feature_46 >  25.65
|   |   |   |   |   |   |   |   |   |   |   |   |   |--- weights: [0.00, 3.00] class: 1
|   |   |   |   |   |   |   |   |   |--- feature_45 >  25.40
|   |   |   |   |   |   |   |   |   |   |--- feature_8 <= 24.96
|   |   |   |   |   |   |   |   |   |   |   |--- weights: [6.00, 0.00] class: 0
|   |   |   |   |   |   |   |   |   |   |--- feature_8 >  24.96
|   |   |   |   |   |   |   |   |   |   |   |--- feature_4 <= 26.12
|   |   |   |   |   |   |   |   |   |   |   |   |--- feature_22 <= 25.08
|   |   |   |   |   |   |   |   |   |   |   |   |   |--- feature_34 <= 26.01
|   |   |   |   |   |   |   |   |   |   |   |   |   |   |--- weights: [4.00, 0.00] class: 0
|   |   |   |   |   |   |   |   |   |   |   |   |   |--- feature_34 >  26.01
|   |   |   |   |   |   |   |   |   |   |   |   |   |   |--- weights: [0.00, 2.00] class: 1
|   |   |   |   |   |   |   |   |   |   |   |   |--- feature_22 >  25.08
|   |   |   |   |   |   |   |   |   |   |   |   |   |--- feature_35 <= 24.65
|   |   |   |   |   |   |   |   |   |   |   |   |   |   |--- weights: [1.00, 0.00] class: 0
|   |   |   |   |   |   |   |   |   |   |   |   |   |--- feature_35 >  24.65
|   |   |   |   |   |   |   |   |   |   |   |   |   |   |--- feature_13 <= 24.60
|   |   |   |   |   |   |   |   |   |   |   |   |   |   |   |--- weights: [1.00, 0.00] class: 0
|   |   |   |   |   |   |   |   |   |   |   |   |   |   |--- feature_13 >  24.60
|   |   |   |   |   |   |   |   |   |   |   |   |   |   |   |--- weights: [0.00, 99.00] class: 1
|   |   |   |   |   |   |   |   |   |   |   |--- feature_4 >  26.12
|   |   |   |   |   |   |   |   |   |   |   |   |--- weights: [3.00, 0.00] class: 0
|   |   |--- feature_20 >  25.39
|   |   |   |--- feature_8 <= 24.55
|   |   |   |   |--- feature_13 <= 25.85
|   |   |   |   |   |--- feature_10 <= 25.52
|   |   |   |   |   |   |--- feature_5 <= 25.96
|   |   |   |   |   |   |   |--- weights: [155.00, 0.00] class: 0
|   |   |   |   |   |   |--- feature_5 >  25.96
|   |   |   |   |   |   |   |--- feature_27 <= 25.52
|   |   |   |   |   |   |   |   |--- weights: [0.00, 2.00] class: 1
|   |   |   |   |   |   |   |--- feature_27 >  25.52
|   |   |   |   |   |   |   |   |--- weights: [1.00, 0.00] class: 0
|   |   |   |   |   |--- feature_10 >  25.52
|   |   |   |   |   |   |--- weights: [0.00, 2.00] class: 1
|   |   |   |   |--- feature_13 >  25.85
|   |   |   |   |   |--- feature_5 <= 25.49
|   |   |   |   |   |   |--- weights: [0.00, 8.00] class: 1
|   |   |   |   |   |--- feature_5 >  25.49
|   |   |   |   |   |   |--- weights: [1.00, 0.00] class: 0
|   |   |   |--- feature_8 >  24.55
|   |   |   |   |--- feature_29 <= 25.47
|   |   |   |   |   |--- feature_7 <= 25.44
|   |   |   |   |   |   |--- feature_30 <= 25.04
|   |   |   |   |   |   |   |--- feature_27 <= 25.74
|   |   |   |   |   |   |   |   |--- feature_4 <= 26.10
|   |   |   |   |   |   |   |   |   |--- feature_13 <= 25.69
|   |   |   |   |   |   |   |   |   |   |--- weights: [94.00, 0.00] class: 0
|   |   |   |   |   |   |   |   |   |--- feature_13 >  25.69
|   |   |   |   |   |   |   |   |   |   |--- feature_9 <= 25.07
|   |   |   |   |   |   |   |   |   |   |   |--- weights: [1.00, 0.00] class: 0
|   |   |   |   |   |   |   |   |   |   |--- feature_9 >  25.07
|   |   |   |   |   |   |   |   |   |   |   |--- weights: [0.00, 1.00] class: 1
|   |   |   |   |   |   |   |   |--- feature_4 >  26.10
|   |   |   |   |   |   |   |   |   |--- weights: [0.00, 2.00] class: 1
|   |   |   |   |   |   |   |--- feature_27 >  25.74
|   |   |   |   |   |   |   |   |--- feature_36 <= 25.35
|   |   |   |   |   |   |   |   |   |--- feature_23 <= 25.77
|   |   |   |   |   |   |   |   |   |   |--- weights: [0.00, 8.00] class: 1
|   |   |   |   |   |   |   |   |   |--- feature_23 >  25.77
|   |   |   |   |   |   |   |   |   |   |--- weights: [2.00, 0.00] class: 0
|   |   |   |   |   |   |   |   |--- feature_36 >  25.35
|   |   |   |   |   |   |   |   |   |--- weights: [7.00, 0.00] class: 0
|   |   |   |   |   |   |--- feature_30 >  25.04
|   |   |   |   |   |   |   |--- feature_38 <= 25.19
|   |   |   |   |   |   |   |   |--- feature_41 <= 25.11
|   |   |   |   |   |   |   |   |   |--- feature_31 <= 25.53
|   |   |   |   |   |   |   |   |   |   |--- weights: [0.00, 12.00] class: 1
|   |   |   |   |   |   |   |   |   |--- feature_31 >  25.53
|   |   |   |   |   |   |   |   |   |   |--- feature_26 <= 25.45
|   |   |   |   |   |   |   |   |   |   |   |--- weights: [0.00, 1.00] class: 1
|   |   |   |   |   |   |   |   |   |   |--- feature_26 >  25.45
|   |   |   |   |   |   |   |   |   |   |   |--- weights: [3.00, 0.00] class: 0
|   |   |   |   |   |   |   |   |--- feature_41 >  25.11
|   |   |   |   |   |   |   |   |   |--- feature_19 <= 24.83
|   |   |   |   |   |   |   |   |   |   |--- weights: [0.00, 4.00] class: 1
|   |   |   |   |   |   |   |   |   |--- feature_19 >  24.83
|   |   |   |   |   |   |   |   |   |   |--- feature_42 <= 25.77
|   |   |   |   |   |   |   |   |   |   |   |--- feature_24 <= 24.60
|   |   |   |   |   |   |   |   |   |   |   |   |--- weights: [0.00, 1.00] class: 1
|   |   |   |   |   |   |   |   |   |   |   |--- feature_24 >  24.60
|   |   |   |   |   |   |   |   |   |   |   |   |--- weights: [73.00, 0.00] class: 0
|   |   |   |   |   |   |   |   |   |   |--- feature_42 >  25.77
|   |   |   |   |   |   |   |   |   |   |   |--- weights: [0.00, 2.00] class: 1
|   |   |   |   |   |   |   |--- feature_38 >  25.19
|   |   |   |   |   |   |   |   |--- feature_18 <= 25.41
|   |   |   |   |   |   |   |   |   |--- feature_17 <= 25.55
|   |   |   |   |   |   |   |   |   |   |--- feature_44 <= 24.69
|   |   |   |   |   |   |   |   |   |   |   |--- weights: [0.00, 7.00] class: 1
|   |   |   |   |   |   |   |   |   |   |--- feature_44 >  24.69
|   |   |   |   |   |   |   |   |   |   |   |--- feature_5 <= 25.15
|   |   |   |   |   |   |   |   |   |   |   |   |--- weights: [0.00, 4.00] class: 1
|   |   |   |   |   |   |   |   |   |   |   |--- feature_5 >  25.15
|   |   |   |   |   |   |   |   |   |   |   |   |--- feature_4 <= 24.52
|   |   |   |   |   |   |   |   |   |   |   |   |   |--- weights: [0.00, 2.00] class: 1
|   |   |   |   |   |   |   |   |   |   |   |   |--- feature_4 >  24.52
|   |   |   |   |   |   |   |   |   |   |   |   |   |--- feature_7 <= 25.42
|   |   |   |   |   |   |   |   |   |   |   |   |   |   |--- weights: [46.00, 0.00] class: 0
|   |   |   |   |   |   |   |   |   |   |   |   |   |--- feature_7 >  25.42
|   |   |   |   |   |   |   |   |   |   |   |   |   |   |--- weights: [0.00, 2.00] class: 1
|   |   |   |   |   |   |   |   |   |--- feature_17 >  25.55
|   |   |   |   |   |   |   |   |   |   |--- weights: [0.00, 16.00] class: 1
|   |   |   |   |   |   |   |   |--- feature_18 >  25.41
|   |   |   |   |   |   |   |   |   |--- feature_5 <= 25.86
|   |   |   |   |   |   |   |   |   |   |--- weights: [0.00, 59.00] class: 1
|   |   |   |   |   |   |   |   |   |--- feature_5 >  25.86
|   |   |   |   |   |   |   |   |   |   |--- feature_42 <= 25.17
|   |   |   |   |   |   |   |   |   |   |   |--- weights: [0.00, 2.00] class: 1
|   |   |   |   |   |   |   |   |   |   |--- feature_42 >  25.17
|   |   |   |   |   |   |   |   |   |   |   |--- weights: [3.00, 0.00] class: 0
|   |   |   |   |   |--- feature_7 >  25.44
|   |   |   |   |   |   |--- feature_26 <= 25.12
|   |   |   |   |   |   |   |--- feature_39 <= 25.24
|   |   |   |   |   |   |   |   |--- feature_38 <= 24.76
|   |   |   |   |   |   |   |   |   |--- feature_0 <= 24.69
|   |   |   |   |   |   |   |   |   |   |--- weights: [0.00, 2.00] class: 1
|   |   |   |   |   |   |   |   |   |--- feature_0 >  24.69
|   |   |   |   |   |   |   |   |   |   |--- weights: [14.00, 0.00] class: 0
|   |   |   |   |   |   |   |   |--- feature_38 >  24.76
|   |   |   |   |   |   |   |   |   |--- feature_11 <= 25.00
|   |   |   |   |   |   |   |   |   |   |--- weights: [0.00, 39.00] class: 1
|   |   |   |   |   |   |   |   |   |--- feature_11 >  25.00
|   |   |   |   |   |   |   |   |   |   |--- weights: [1.00, 0.00] class: 0
|   |   |   |   |   |   |   |--- feature_39 >  25.24
|   |   |   |   |   |   |   |   |--- feature_38 <= 25.69
|   |   |   |   |   |   |   |   |   |--- feature_4 <= 24.35
|   |   |   |   |   |   |   |   |   |   |--- weights: [0.00, 1.00] class: 1
|   |   |   |   |   |   |   |   |   |--- feature_4 >  24.35
|   |   |   |   |   |   |   |   |   |   |--- weights: [53.00, 0.00] class: 0
|   |   |   |   |   |   |   |   |--- feature_38 >  25.69
|   |   |   |   |   |   |   |   |   |--- weights: [0.00, 2.00] class: 1
|   |   |   |   |   |   |--- feature_26 >  25.12
|   |   |   |   |   |   |   |--- feature_27 <= 24.89
|   |   |   |   |   |   |   |   |--- feature_28 <= 25.20
|   |   |   |   |   |   |   |   |   |--- weights: [0.00, 4.00] class: 1
|   |   |   |   |   |   |   |   |--- feature_28 >  25.20
|   |   |   |   |   |   |   |   |   |--- feature_45 <= 25.26
|   |   |   |   |   |   |   |   |   |   |--- feature_42 <= 25.19
|   |   |   |   |   |   |   |   |   |   |   |--- weights: [1.00, 0.00] class: 0
|   |   |   |   |   |   |   |   |   |   |--- feature_42 >  25.19
|   |   |   |   |   |   |   |   |   |   |   |--- weights: [0.00, 2.00] class: 1
|   |   |   |   |   |   |   |   |   |--- feature_45 >  25.26
|   |   |   |   |   |   |   |   |   |   |--- weights: [11.00, 0.00] class: 0
|   |   |   |   |   |   |   |--- feature_27 >  24.89
|   |   |   |   |   |   |   |   |--- feature_5 <= 25.46
|   |   |   |   |   |   |   |   |   |--- feature_40 <= 25.42
|   |   |   |   |   |   |   |   |   |   |--- feature_31 <= 26.13
|   |   |   |   |   |   |   |   |   |   |   |--- feature_26 <= 25.23
|   |   |   |   |   |   |   |   |   |   |   |   |--- feature_7 <= 25.67
|   |   |   |   |   |   |   |   |   |   |   |   |   |--- weights: [5.00, 0.00] class: 0
|   |   |   |   |   |   |   |   |   |   |   |   |--- feature_7 >  25.67
|   |   |   |   |   |   |   |   |   |   |   |   |   |--- weights: [0.00, 5.00] class: 1
|   |   |   |   |   |   |   |   |   |   |   |--- feature_26 >  25.23
|   |   |   |   |   |   |   |   |   |   |   |   |--- feature_1 <= 24.60
|   |   |   |   |   |   |   |   |   |   |   |   |   |--- feature_34 <= 25.14
|   |   |   |   |   |   |   |   |   |   |   |   |   |   |--- weights: [0.00, 1.00] class: 1
|   |   |   |   |   |   |   |   |   |   |   |   |   |--- feature_34 >  25.14
|   |   |   |   |   |   |   |   |   |   |   |   |   |   |--- weights: [2.00, 0.00] class: 0
|   |   |   |   |   |   |   |   |   |   |   |   |--- feature_1 >  24.60
|   |   |   |   |   |   |   |   |   |   |   |   |   |--- feature_0 <= 26.10
|   |   |   |   |   |   |   |   |   |   |   |   |   |   |--- weights: [0.00, 90.00] class: 1
|   |   |   |   |   |   |   |   |   |   |   |   |   |--- feature_0 >  26.10
|   |   |   |   |   |   |   |   |   |   |   |   |   |   |--- weights: [1.00, 0.00] class: 0
|   |   |   |   |   |   |   |   |   |   |--- feature_31 >  26.13
|   |   |   |   |   |   |   |   |   |   |   |--- weights: [3.00, 0.00] class: 0
|   |   |   |   |   |   |   |   |   |--- feature_40 >  25.42
|   |   |   |   |   |   |   |   |   |   |--- feature_23 <= 25.81
|   |   |   |   |   |   |   |   |   |   |   |--- weights: [16.00, 0.00] class: 0
|   |   |   |   |   |   |   |   |   |   |--- feature_23 >  25.81
|   |   |   |   |   |   |   |   |   |   |   |--- feature_35 <= 25.36
|   |   |   |   |   |   |   |   |   |   |   |   |--- weights: [2.00, 0.00] class: 0
|   |   |   |   |   |   |   |   |   |   |   |--- feature_35 >  25.36
|   |   |   |   |   |   |   |   |   |   |   |   |--- weights: [0.00, 6.00] class: 1
|   |   |   |   |   |   |   |   |--- feature_5 >  25.46
|   |   |   |   |   |   |   |   |   |--- feature_37 <= 26.32
|   |   |   |   |   |   |   |   |   |   |--- weights: [0.00, 168.00] class: 1
|   |   |   |   |   |   |   |   |   |--- feature_37 >  26.32
|   |   |   |   |   |   |   |   |   |   |--- weights: [1.00, 0.00] class: 0
|   |   |   |   |--- feature_29 >  25.47
|   |   |   |   |   |--- feature_28 <= 25.32
|   |   |   |   |   |   |--- feature_43 <= 25.20
|   |   |   |   |   |   |   |--- feature_15 <= 25.56
|   |   |   |   |   |   |   |   |--- feature_21 <= 24.63
|   |   |   |   |   |   |   |   |   |--- weights: [0.00, 1.00] class: 1
|   |   |   |   |   |   |   |   |--- feature_21 >  24.63
|   |   |   |   |   |   |   |   |   |--- weights: [57.00, 0.00] class: 0
|   |   |   |   |   |   |   |--- feature_15 >  25.56
|   |   |   |   |   |   |   |   |--- weights: [0.00, 25.00] class: 1
|   |   |   |   |   |   |--- feature_43 >  25.20
|   |   |   |   |   |   |   |--- feature_13 <= 24.91
|   |   |   |   |   |   |   |   |--- feature_31 <= 25.11
|   |   |   |   |   |   |   |   |   |--- weights: [0.00, 1.00] class: 1
|   |   |   |   |   |   |   |   |--- feature_31 >  25.11
|   |   |   |   |   |   |   |   |   |--- weights: [4.00, 0.00] class: 0
|   |   |   |   |   |   |   |--- feature_13 >  24.91
|   |   |   |   |   |   |   |   |--- feature_2 <= 24.45
|   |   |   |   |   |   |   |   |   |--- feature_29 <= 25.60
|   |   |   |   |   |   |   |   |   |   |--- weights: [1.00, 0.00] class: 0
|   |   |   |   |   |   |   |   |   |--- feature_29 >  25.60
|   |   |   |   |   |   |   |   |   |   |--- weights: [0.00, 1.00] class: 1
|   |   |   |   |   |   |   |   |--- feature_2 >  24.45
|   |   |   |   |   |   |   |   |   |--- weights: [0.00, 85.00] class: 1
|   |   |   |   |   |--- feature_28 >  25.32
|   |   |   |   |   |   |--- feature_1 <= 26.89
|   |   |   |   |   |   |   |--- feature_20 <= 25.44
|   |   |   |   |   |   |   |   |--- feature_7 <= 25.48
|   |   |   |   |   |   |   |   |   |--- feature_35 <= 24.92
|   |   |   |   |   |   |   |   |   |   |--- weights: [0.00, 1.00] class: 1
|   |   |   |   |   |   |   |   |   |--- feature_35 >  24.92
|   |   |   |   |   |   |   |   |   |   |--- weights: [14.00, 0.00] class: 0
|   |   |   |   |   |   |   |   |--- feature_7 >  25.48
|   |   |   |   |   |   |   |   |   |--- weights: [0.00, 20.00] class: 1
|   |   |   |   |   |   |   |--- feature_20 >  25.44
|   |   |   |   |   |   |   |   |--- feature_12 <= 25.18
|   |   |   |   |   |   |   |   |   |--- weights: [2.00, 0.00] class: 0
|   |   |   |   |   |   |   |   |--- feature_12 >  25.18
|   |   |   |   |   |   |   |   |   |--- feature_23 <= 24.83
|   |   |   |   |   |   |   |   |   |   |--- weights: [2.00, 0.00] class: 0
|   |   |   |   |   |   |   |   |   |--- feature_23 >  24.83
|   |   |   |   |   |   |   |   |   |   |--- feature_25 <= 24.51
|   |   |   |   |   |   |   |   |   |   |   |--- weights: [1.00, 0.00] class: 0
|   |   |   |   |   |   |   |   |   |   |--- feature_25 >  24.51
|   |   |   |   |   |   |   |   |   |   |   |--- feature_11 <= 25.01
|   |   |   |   |   |   |   |   |   |   |   |   |--- feature_13 <= 24.46
|   |   |   |   |   |   |   |   |   |   |   |   |   |--- weights: [1.00, 0.00] class: 0
|   |   |   |   |   |   |   |   |   |   |   |   |--- feature_13 >  24.46
|   |   |   |   |   |   |   |   |   |   |   |   |   |--- feature_1 <= 26.36
|   |   |   |   |   |   |   |   |   |   |   |   |   |   |--- feature_20 <= 25.59
|   |   |   |   |   |   |   |   |   |   |   |   |   |   |   |--- feature_10 <= 25.99
|   |   |   |   |   |   |   |   |   |   |   |   |   |   |   |   |--- feature_8 <= 24.74
|   |   |   |   |   |   |   |   |   |   |   |   |   |   |   |   |   |--- feature_28 <= 25.89
|   |   |   |   |   |   |   |   |   |   |   |   |   |   |   |   |   |   |--- weights: [3.00, 0.00] class: 0
|   |   |   |   |   |   |   |   |   |   |   |   |   |   |   |   |   |--- feature_28 >  25.89
|   |   |   |   |   |   |   |   |   |   |   |   |   |   |   |   |   |   |--- weights: [0.00, 2.00] class: 1
|   |   |   |   |   |   |   |   |   |   |   |   |   |   |   |   |--- feature_8 >  24.74
|   |   |   |   |   |   |   |   |   |   |   |   |   |   |   |   |   |--- feature_4 <= 26.14
|   |   |   |   |   |   |   |   |   |   |   |   |   |   |   |   |   |   |--- weights: [0.00, 87.00] class: 1
|   |   |   |   |   |   |   |   |   |   |   |   |   |   |   |   |   |--- feature_4 >  26.14
|   |   |   |   |   |   |   |   |   |   |   |   |   |   |   |   |   |   |--- weights: [1.00, 0.00] class: 0
|   |   |   |   |   |   |   |   |   |   |   |   |   |   |   |--- feature_10 >  25.99
|   |   |   |   |   |   |   |   |   |   |   |   |   |   |   |   |--- weights: [2.00, 0.00] class: 0
|   |   |   |   |   |   |   |   |   |   |   |   |   |   |--- feature_20 >  25.59
|   |   |   |   |   |   |   |   |   |   |   |   |   |   |   |--- weights: [0.00, 618.00] class: 1
|   |   |   |   |   |   |   |   |   |   |   |   |   |--- feature_1 >  26.36
|   |   |   |   |   |   |   |   |   |   |   |   |   |   |--- feature_21 <= 26.19
|   |   |   |   |   |   |   |   |   |   |   |   |   |   |   |--- weights: [0.00, 20.00] class: 1
|   |   |   |   |   |   |   |   |   |   |   |   |   |   |--- feature_21 >  26.19
|   |   |   |   |   |   |   |   |   |   |   |   |   |   |   |--- weights: [4.00, 0.00] class: 0
|   |   |   |   |   |   |   |   |   |   |   |--- feature_11 >  25.01
|   |   |   |   |   |   |   |   |   |   |   |   |--- weights: [1.00, 0.00] class: 0
|   |   |   |   |   |   |--- feature_1 >  26.89
|   |   |   |   |   |   |   |--- feature_43 <= 25.27
|   |   |   |   |   |   |   |   |--- weights: [0.00, 3.00] class: 1
|   |   |   |   |   |   |   |--- feature_43 >  25.27
|   |   |   |   |   |   |   |   |--- weights: [13.00, 0.00] class: 0
|--- feature_11 >  25.02
|   |--- feature_11 <= 25.92
|   |   |--- feature_27 <= 24.58
|   |   |   |--- feature_5 <= 26.56
|   |   |   |   |--- feature_26 <= 24.67
|   |   |   |   |   |--- feature_16 <= 26.23
|   |   |   |   |   |   |--- feature_9 <= 25.80
|   |   |   |   |   |   |   |--- feature_20 <= 26.00
|   |   |   |   |   |   |   |   |--- feature_20 <= 25.76
|   |   |   |   |   |   |   |   |   |--- feature_26 <= 24.63
|   |   |   |   |   |   |   |   |   |   |--- weights: [1406.00, 0.00] class: 0
|   |   |   |   |   |   |   |   |   |--- feature_26 >  24.63
|   |   |   |   |   |   |   |   |   |   |--- feature_15 <= 24.66
|   |   |   |   |   |   |   |   |   |   |   |--- weights: [0.00, 2.00] class: 1
|   |   |   |   |   |   |   |   |   |   |--- feature_15 >  24.66
|   |   |   |   |   |   |   |   |   |   |   |--- weights: [41.00, 0.00] class: 0
|   |   |   |   |   |   |   |   |--- feature_20 >  25.76
|   |   |   |   |   |   |   |   |   |--- feature_21 <= 25.40
|   |   |   |   |   |   |   |   |   |   |--- weights: [33.00, 0.00] class: 0
|   |   |   |   |   |   |   |   |   |--- feature_21 >  25.40
|   |   |   |   |   |   |   |   |   |   |--- weights: [0.00, 5.00] class: 1
|   |   |   |   |   |   |   |--- feature_20 >  26.00
|   |   |   |   |   |   |   |   |--- feature_0 <= 25.40
|   |   |   |   |   |   |   |   |   |--- weights: [0.00, 5.00] class: 1
|   |   |   |   |   |   |   |   |--- feature_0 >  25.40
|   |   |   |   |   |   |   |   |   |--- weights: [2.00, 0.00] class: 0
|   |   |   |   |   |   |--- feature_9 >  25.80
|   |   |   |   |   |   |   |--- feature_4 <= 25.14
|   |   |   |   |   |   |   |   |--- weights: [0.00, 28.00] class: 1
|   |   |   |   |   |   |   |--- feature_4 >  25.14
|   |   |   |   |   |   |   |   |--- feature_6 <= 25.91
|   |   |   |   |   |   |   |   |   |--- weights: [129.00, 0.00] class: 0
|   |   |   |   |   |   |   |   |--- feature_6 >  25.91
|   |   |   |   |   |   |   |   |   |--- weights: [0.00, 1.00] class: 1
|   |   |   |   |   |--- feature_16 >  26.23
|   |   |   |   |   |   |--- weights: [0.00, 11.00] class: 1
|   |   |   |   |--- feature_26 >  24.67
|   |   |   |   |   |--- feature_42 <= 24.91
|   |   |   |   |   |   |--- feature_23 <= 25.43
|   |   |   |   |   |   |   |--- feature_33 <= 24.08
|   |   |   |   |   |   |   |   |--- weights: [3.00, 0.00] class: 0
|   |   |   |   |   |   |   |--- feature_33 >  24.08
|   |   |   |   |   |   |   |   |--- weights: [0.00, 83.00] class: 1
|   |   |   |   |   |   |--- feature_23 >  25.43
|   |   |   |   |   |   |   |--- feature_3 <= 25.67
|   |   |   |   |   |   |   |   |--- weights: [10.00, 0.00] class: 0
|   |   |   |   |   |   |   |--- feature_3 >  25.67
|   |   |   |   |   |   |   |   |--- weights: [0.00, 1.00] class: 1
|   |   |   |   |   |--- feature_42 >  24.91
|   |   |   |   |   |   |--- feature_20 <= 25.80
|   |   |   |   |   |   |   |--- feature_6 <= 26.10
|   |   |   |   |   |   |   |   |--- feature_4 <= 26.64
|   |   |   |   |   |   |   |   |   |--- feature_3 <= 25.77
|   |   |   |   |   |   |   |   |   |   |--- feature_39 <= 24.54
|   |   |   |   |   |   |   |   |   |   |   |--- feature_17 <= 25.50
|   |   |   |   |   |   |   |   |   |   |   |   |--- weights: [0.00, 3.00] class: 1
|   |   |   |   |   |   |   |   |   |   |   |--- feature_17 >  25.50
|   |   |   |   |   |   |   |   |   |   |   |   |--- weights: [2.00, 0.00] class: 0
|   |   |   |   |   |   |   |   |   |   |--- feature_39 >  24.54
|   |   |   |   |   |   |   |   |   |   |   |--- feature_5 <= 26.04
|   |   |   |   |   |   |   |   |   |   |   |   |--- feature_31 <= 26.44
|   |   |   |   |   |   |   |   |   |   |   |   |   |--- feature_3 <= 25.67
|   |   |   |   |   |   |   |   |   |   |   |   |   |   |--- feature_20 <= 25.75
|   |   |   |   |   |   |   |   |   |   |   |   |   |   |   |--- weights: [264.00, 0.00] class: 0
|   |   |   |   |   |   |   |   |   |   |   |   |   |   |--- feature_20 >  25.75
|   |   |   |   |   |   |   |   |   |   |   |   |   |   |   |--- feature_43 <= 25.43
|   |   |   |   |   |   |   |   |   |   |   |   |   |   |   |   |--- weights: [1.00, 0.00] class: 0
|   |   |   |   |   |   |   |   |   |   |   |   |   |   |   |--- feature_43 >  25.43
|   |   |   |   |   |   |   |   |   |   |   |   |   |   |   |   |--- weights: [0.00, 1.00] class: 1
|   |   |   |   |   |   |   |   |   |   |   |   |   |--- feature_3 >  25.67
|   |   |   |   |   |   |   |   |   |   |   |   |   |   |--- feature_21 <= 24.83
|   |   |   |   |   |   |   |   |   |   |   |   |   |   |   |--- weights: [0.00, 2.00] class: 1
|   |   |   |   |   |   |   |   |   |   |   |   |   |   |--- feature_21 >  24.83
|   |   |   |   |   |   |   |   |   |   |   |   |   |   |   |--- weights: [9.00, 0.00] class: 0
|   |   |   |   |   |   |   |   |   |   |   |   |--- feature_31 >  26.44
|   |   |   |   |   |   |   |   |   |   |   |   |   |--- weights: [0.00, 1.00] class: 1
|   |   |   |   |   |   |   |   |   |   |   |--- feature_5 >  26.04
|   |   |   |   |   |   |   |   |   |   |   |   |--- weights: [0.00, 1.00] class: 1
|   |   |   |   |   |   |   |   |   |--- feature_3 >  25.77
|   |   |   |   |   |   |   |   |   |   |--- feature_43 <= 25.65
|   |   |   |   |   |   |   |   |   |   |   |--- weights: [3.00, 0.00] class: 0
|   |   |   |   |   |   |   |   |   |   |--- feature_43 >  25.65
|   |   |   |   |   |   |   |   |   |   |   |--- weights: [0.00, 4.00] class: 1
|   |   |   |   |   |   |   |   |--- feature_4 >  26.64
|   |   |   |   |   |   |   |   |   |--- weights: [0.00, 3.00] class: 1
|   |   |   |   |   |   |   |--- feature_6 >  26.10
|   |   |   |   |   |   |   |   |--- feature_7 <= 25.55
|   |   |   |   |   |   |   |   |   |--- weights: [0.00, 11.00] class: 1
|   |   |   |   |   |   |   |   |--- feature_7 >  25.55
|   |   |   |   |   |   |   |   |   |--- weights: [4.00, 0.00] class: 0
|   |   |   |   |   |   |--- feature_20 >  25.80
|   |   |   |   |   |   |   |--- feature_43 <= 25.11
|   |   |   |   |   |   |   |   |--- weights: [2.00, 0.00] class: 0
|   |   |   |   |   |   |   |--- feature_43 >  25.11
|   |   |   |   |   |   |   |   |--- weights: [0.00, 31.00] class: 1
|   |   |   |--- feature_5 >  26.56
|   |   |   |   |--- weights: [0.00, 119.00] class: 1
|   |   |--- feature_27 >  24.58
|   |   |   |--- feature_24 <= 26.19
|   |   |   |   |--- feature_28 <= 25.47
|   |   |   |   |   |--- feature_6 <= 26.17
|   |   |   |   |   |   |--- feature_17 <= 25.14
|   |   |   |   |   |   |   |--- feature_18 <= 25.35
|   |   |   |   |   |   |   |   |--- feature_21 <= 25.69
|   |   |   |   |   |   |   |   |   |--- feature_7 <= 26.09
|   |   |   |   |   |   |   |   |   |   |--- feature_5 <= 25.55
|   |   |   |   |   |   |   |   |   |   |   |--- feature_20 <= 25.90
|   |   |   |   |   |   |   |   |   |   |   |   |--- feature_17 <= 25.12
|   |   |   |   |   |   |   |   |   |   |   |   |   |--- feature_13 <= 25.90
|   |   |   |   |   |   |   |   |   |   |   |   |   |   |--- feature_12 <= 25.85
|   |   |   |   |   |   |   |   |   |   |   |   |   |   |   |--- feature_9 <= 26.05
|   |   |   |   |   |   |   |   |   |   |   |   |   |   |   |   |--- feature_42 <= 24.42
|   |   |   |   |   |   |   |   |   |   |   |   |   |   |   |   |   |--- feature_41 <= 25.77
|   |   |   |   |   |   |   |   |   |   |   |   |   |   |   |   |   |   |--- weights: [0.00, 5.00] class: 1
|   |   |   |   |   |   |   |   |   |   |   |   |   |   |   |   |   |--- feature_41 >  25.77
|   |   |   |   |   |   |   |   |   |   |   |   |   |   |   |   |   |   |--- weights: [1.00, 0.00] class: 0
|   |   |   |   |   |   |   |   |   |   |   |   |   |   |   |   |--- feature_42 >  24.42
|   |   |   |   |   |   |   |   |   |   |   |   |   |   |   |   |   |--- feature_0 <= 26.51
|   |   |   |   |   |   |   |   |   |   |   |   |   |   |   |   |   |   |--- feature_42 <= 26.29
|   |   |   |   |   |   |   |   |   |   |   |   |   |   |   |   |   |   |   |--- feature_17 <= 25.05
|   |   |   |   |   |   |   |   |   |   |   |   |   |   |   |   |   |   |   |   |--- feature_19 <= 26.06
|   |   |   |   |   |   |   |   |   |   |   |   |   |   |   |   |   |   |   |   |   |--- feature_29 <= 24.18
|   |   |   |   |   |   |   |   |   |   |   |   |   |   |   |   |   |   |   |   |   |   |--- feature_45 <= 25.05
|   |   |   |   |   |   |   |   |   |   |   |   |   |   |   |   |   |   |   |   |   |   |   |--- weights: [0.00, 3.00] class: 1
|   |   |   |   |   |   |   |   |   |   |   |   |   |   |   |   |   |   |   |   |   |   |--- feature_45 >  25.05
|   |   |   |   |   |   |   |   |   |   |   |   |   |   |   |   |   |   |   |   |   |   |   |--- weights: [5.00, 0.00] class: 0
|   |   |   |   |   |   |   |   |   |   |   |   |   |   |   |   |   |   |   |   |   |--- feature_29 >  24.18
|   |   |   |   |   |   |   |   |   |   |   |   |   |   |   |   |   |   |   |   |   |   |--- feature_49 <= 26.24
|   |   |   |   |   |   |   |   |   |   |   |   |   |   |   |   |   |   |   |   |   |   |   |--- feature_7 <= 26.03
|   |   |   |   |   |   |   |   |   |   |   |   |   |   |   |   |   |   |   |   |   |   |   |   |--- feature_18 <= 25.33
|   |   |   |   |   |   |   |   |   |   |   |   |   |   |   |   |   |   |   |   |   |   |   |   |   |--- feature_23 <= 25.78
|   |   |   |   |   |   |   |   |   |   |   |   |   |   |   |   |   |   |   |   |   |   |   |   |   |   |--- feature_42 <= 24.57
|   |   |   |   |   |   |   |   |   |   |   |   |   |   |   |   |   |   |   |   |   |   |   |   |   |   |   |--- feature_45 <= 25.13
|   |   |   |   |   |   |   |   |   |   |   |   |   |   |   |   |   |   |   |   |   |   |   |   |   |   |   |   |--- weights: [6.00, 0.00] class: 0
|   |   |   |   |   |   |   |   |   |   |   |   |   |   |   |   |   |   |   |   |   |   |   |   |   |   |   |--- feature_45 >  25.13
|   |   |   |   |   |   |   |   |   |   |   |   |   |   |   |   |   |   |   |   |   |   |   |   |   |   |   |   |--- weights: [0.00, 1.00] class: 1
|   |   |   |   |   |   |   |   |   |   |   |   |   |   |   |   |   |   |   |   |   |   |   |   |   |   |--- feature_42 >  24.57
|   |   |   |   |   |   |   |   |   |   |   |   |   |   |   |   |   |   |   |   |   |   |   |   |   |   |   |--- weights: [825.00, 0.00] class: 0
|   |   |   |   |   |   |   |   |   |   |   |   |   |   |   |   |   |   |   |   |   |   |   |   |   |--- feature_23 >  25.78
|   |   |   |   |   |   |   |   |   |   |   |   |   |   |   |   |   |   |   |   |   |   |   |   |   |   |--- feature_33 <= 25.73
|   |   |   |   |   |   |   |   |   |   |   |   |   |   |   |   |   |   |   |   |   |   |   |   |   |   |   |--- feature_3 <= 25.83
|   |   |   |   |   |   |   |   |   |   |   |   |   |   |   |   |   |   |   |   |   |   |   |   |   |   |   |   |--- weights: [58.00, 0.00] class: 0
|   |   |   |   |   |   |   |   |   |   |   |   |   |   |   |   |   |   |   |   |   |   |   |   |   |   |   |--- feature_3 >  25.83
|   |   |   |   |   |   |   |   |   |   |   |   |   |   |   |   |   |   |   |   |   |   |   |   |   |   |   |   |--- weights: [0.00, 1.00] class: 1
|   |   |   |   |   |   |   |   |   |   |   |   |   |   |   |   |   |   |   |   |   |   |   |   |   |   |--- feature_33 >  25.73
|   |   |   |   |   |   |   |   |   |   |   |   |   |   |   |   |   |   |   |   |   |   |   |   |   |   |   |--- weights: [0.00, 2.00] class: 1
|   |   |   |   |   |   |   |   |   |   |   |   |   |   |   |   |   |   |   |   |   |   |   |   |--- feature_18 >  25.33
|   |   |   |   |   |   |   |   |   |   |   |   |   |   |   |   |   |   |   |   |   |   |   |   |   |--- feature_21 <= 25.26
|   |   |   |   |   |   |   |   |   |   |   |   |   |   |   |   |   |   |   |   |   |   |   |   |   |   |--- weights: [5.00, 0.00] class: 0
|   |   |   |   |   |   |   |   |   |   |   |   |   |   |   |   |   |   |   |   |   |   |   |   |   |--- feature_21 >  25.26
|   |   |   |   |   |   |   |   |   |   |   |   |   |   |   |   |   |   |   |   |   |   |   |   |   |   |--- weights: [0.00, 1.00] class: 1
|   |   |   |   |   |   |   |   |   |   |   |   |   |   |   |   |   |   |   |   |   |   |   |--- feature_7 >  26.03
|   |   |   |   |   |   |   |   |   |   |   |   |   |   |   |   |   |   |   |   |   |   |   |   |--- feature_33 <= 25.62
|   |   |   |   |   |   |   |   |   |   |   |   |   |   |   |   |   |   |   |   |   |   |   |   |   |--- weights: [8.00, 0.00] class: 0
|   |   |   |   |   |   |   |   |   |   |   |   |   |   |   |   |   |   |   |   |   |   |   |   |--- feature_33 >  25.62
|   |   |   |   |   |   |   |   |   |   |   |   |   |   |   |   |   |   |   |   |   |   |   |   |   |--- weights: [0.00, 2.00] class: 1
|   |   |   |   |   |   |   |   |   |   |   |   |   |   |   |   |   |   |   |   |   |   |--- feature_49 >  26.24
|   |   |   |   |   |   |   |   |   |   |   |   |   |   |   |   |   |   |   |   |   |   |   |--- weights: [0.00, 1.00] class: 1
|   |   |   |   |   |   |   |   |   |   |   |   |   |   |   |   |   |   |   |   |--- feature_19 >  26.06
|   |   |   |   |   |   |   |   |   |   |   |   |   |   |   |   |   |   |   |   |   |--- feature_10 <= 25.41
|   |   |   |   |   |   |   |   |   |   |   |   |   |   |   |   |   |   |   |   |   |   |--- weights: [0.00, 3.00] class: 1
|   |   |   |   |   |   |   |   |   |   |   |   |   |   |   |   |   |   |   |   |   |--- feature_10 >  25.41
|   |   |   |   |   |   |   |   |   |   |   |   |   |   |   |   |   |   |   |   |   |   |--- weights: [2.00, 0.00] class: 0
|   |   |   |   |   |   |   |   |   |   |   |   |   |   |   |   |   |   |   |--- feature_17 >  25.05
|   |   |   |   |   |   |   |   |   |   |   |   |   |   |   |   |   |   |   |   |--- feature_9 <= 24.81
|   |   |   |   |   |   |   |   |   |   |   |   |   |   |   |   |   |   |   |   |   |--- feature_18 <= 25.18
|   |   |   |   |   |   |   |   |   |   |   |   |   |   |   |   |   |   |   |   |   |   |--- weights: [0.00, 8.00] class: 1
|   |   |   |   |   |   |   |   |   |   |   |   |   |   |   |   |   |   |   |   |   |--- feature_18 >  25.18
|   |   |   |   |   |   |   |   |   |   |   |   |   |   |   |   |   |   |   |   |   |   |--- weights: [2.00, 0.00] class: 0
|   |   |   |   |   |   |   |   |   |   |   |   |   |   |   |   |   |   |   |   |--- feature_9 >  24.81
|   |   |   |   |   |   |   |   |   |   |   |   |   |   |   |   |   |   |   |   |   |--- feature_39 <= 25.86
|   |   |   |   |   |   |   |   |   |   |   |   |   |   |   |   |   |   |   |   |   |   |--- feature_8 <= 24.87
|   |   |   |   |   |   |   |   |   |   |   |   |   |   |   |   |   |   |   |   |   |   |   |--- feature_40 <= 25.43
|   |   |   |   |   |   |   |   |   |   |   |   |   |   |   |   |   |   |   |   |   |   |   |   |--- weights: [0.00, 2.00] class: 1
|   |   |   |   |   |   |   |   |   |   |   |   |   |   |   |   |   |   |   |   |   |   |   |--- feature_40 >  25.43
|   |   |   |   |   |   |   |   |   |   |   |   |   |   |   |   |   |   |   |   |   |   |   |   |--- weights: [1.00, 0.00] class: 0
|   |   |   |   |   |   |   |   |   |   |   |   |   |   |   |   |   |   |   |   |   |   |--- feature_8 >  24.87
|   |   |   |   |   |   |   |   |   |   |   |   |   |   |   |   |   |   |   |   |   |   |   |--- feature_24 <= 24.64
|   |   |   |   |   |   |   |   |   |   |   |   |   |   |   |   |   |   |   |   |   |   |   |   |--- weights: [0.00, 1.00] class: 1
|   |   |   |   |   |   |   |   |   |   |   |   |   |   |   |   |   |   |   |   |   |   |   |--- feature_24 >  24.64
|   |   |   |   |   |   |   |   |   |   |   |   |   |   |   |   |   |   |   |   |   |   |   |   |--- feature_20 <= 24.61
|   |   |   |   |   |   |   |   |   |   |   |   |   |   |   |   |   |   |   |   |   |   |   |   |   |--- weights: [0.00, 1.00] class: 1
|   |   |   |   |   |   |   |   |   |   |   |   |   |   |   |   |   |   |   |   |   |   |   |   |--- feature_20 >  24.61
|   |   |   |   |   |   |   |   |   |   |   |   |   |   |   |   |   |   |   |   |   |   |   |   |   |--- weights: [116.00, 0.00] class: 0
|   |   |   |   |   |   |   |   |   |   |   |   |   |   |   |   |   |   |   |   |   |--- feature_39 >  25.86
|   |   |   |   |   |   |   |   |   |   |   |   |   |   |   |   |   |   |   |   |   |   |--- feature_40 <= 25.78
|   |   |   |   |   |   |   |   |   |   |   |   |   |   |   |   |   |   |   |   |   |   |   |--- weights: [0.00, 4.00] class: 1
|   |   |   |   |   |   |   |   |   |   |   |   |   |   |   |   |   |   |   |   |   |   |--- feature_40 >  25.78
|   |   |   |   |   |   |   |   |   |   |   |   |   |   |   |   |   |   |   |   |   |   |   |--- weights: [2.00, 0.00] class: 0
|   |   |   |   |   |   |   |   |   |   |   |   |   |   |   |   |   |   |--- feature_42 >  26.29
|   |   |   |   |   |   |   |   |   |   |   |   |   |   |   |   |   |   |   |--- weights: [0.00, 3.00] class: 1
|   |   |   |   |   |   |   |   |   |   |   |   |   |   |   |   |   |--- feature_0 >  26.51
|   |   |   |   |   |   |   |   |   |   |   |   |   |   |   |   |   |   |--- weights: [0.00, 3.00] class: 1
|   |   |   |   |   |   |   |   |   |   |   |   |   |   |   |--- feature_9 >  26.05
|   |   |   |   |   |   |   |   |   |   |   |   |   |   |   |   |--- feature_8 <= 25.13
|   |   |   |   |   |   |   |   |   |   |   |   |   |   |   |   |   |--- weights: [0.00, 9.00] class: 1
|   |   |   |   |   |   |   |   |   |   |   |   |   |   |   |   |--- feature_8 >  25.13
|   |   |   |   |   |   |   |   |   |   |   |   |   |   |   |   |   |--- feature_9 <= 26.09
|   |   |   |   |   |   |   |   |   |   |   |   |   |   |   |   |   |   |--- weights: [0.00, 2.00] class: 1
|   |   |   |   |   |   |   |   |   |   |   |   |   |   |   |   |   |--- feature_9 >  26.09
|   |   |   |   |   |   |   |   |   |   |   |   |   |   |   |   |   |   |--- weights: [15.00, 0.00] class: 0
|   |   |   |   |   |   |   |   |   |   |   |   |   |   |--- feature_12 >  25.85
|   |   |   |   |   |   |   |   |   |   |   |   |   |   |   |--- feature_31 <= 25.76
|   |   |   |   |   |   |   |   |   |   |   |   |   |   |   |   |--- feature_30 <= 25.50
|   |   |   |   |   |   |   |   |   |   |   |   |   |   |   |   |   |--- feature_24 <= 25.55
|   |   |   |   |   |   |   |   |   |   |   |   |   |   |   |   |   |   |--- weights: [79.00, 0.00] class: 0
|   |   |   |   |   |   |   |   |   |   |   |   |   |   |   |   |   |--- feature_24 >  25.55
|   |   |   |   |   |   |   |   |   |   |   |   |   |   |   |   |   |   |--- feature_49 <= 25.34
|   |   |   |   |   |   |   |   |   |   |   |   |   |   |   |   |   |   |   |--- weights: [1.00, 0.00] class: 0
|   |   |   |   |   |   |   |   |   |   |   |   |   |   |   |   |   |   |--- feature_49 >  25.34
|   |   |   |   |   |   |   |   |   |   |   |   |   |   |   |   |   |   |   |--- weights: [0.00, 2.00] class: 1
|   |   |   |   |   |   |   |   |   |   |   |   |   |   |   |   |--- feature_30 >  25.50
|   |   |   |   |   |   |   |   |   |   |   |   |   |   |   |   |   |--- weights: [0.00, 7.00] class: 1
|   |   |   |   |   |   |   |   |   |   |   |   |   |   |   |--- feature_31 >  25.76
|   |   |   |   |   |   |   |   |   |   |   |   |   |   |   |   |--- feature_8 <= 25.64
|   |   |   |   |   |   |   |   |   |   |   |   |   |   |   |   |   |--- weights: [0.00, 23.00] class: 1
|   |   |   |   |   |   |   |   |   |   |   |   |   |   |   |   |--- feature_8 >  25.64
|   |   |   |   |   |   |   |   |   |   |   |   |   |   |   |   |   |--- weights: [3.00, 0.00] class: 0
|   |   |   |   |   |   |   |   |   |   |   |   |   |--- feature_13 >  25.90
|   |   |   |   |   |   |   |   |   |   |   |   |   |   |--- feature_28 <= 25.39
|   |   |   |   |   |   |   |   |   |   |   |   |   |   |   |--- feature_35 <= 25.67
|   |   |   |   |   |   |   |   |   |   |   |   |   |   |   |   |--- weights: [20.00, 0.00] class: 0
|   |   |   |   |   |   |   |   |   |   |   |   |   |   |   |--- feature_35 >  25.67
|   |   |   |   |   |   |   |   |   |   |   |   |   |   |   |   |--- feature_8 <= 24.78
|   |   |   |   |   |   |   |   |   |   |   |   |   |   |   |   |   |--- weights: [1.00, 0.00] class: 0
|   |   |   |   |   |   |   |   |   |   |   |   |   |   |   |   |--- feature_8 >  24.78
|   |   |   |   |   |   |   |   |   |   |   |   |   |   |   |   |   |--- weights: [0.00, 4.00] class: 1
|   |   |   |   |   |   |   |   |   |   |   |   |   |   |--- feature_28 >  25.39
|   |   |   |   |   |   |   |   |   |   |   |   |   |   |   |--- feature_43 <= 25.61
|   |   |   |   |   |   |   |   |   |   |   |   |   |   |   |   |--- weights: [0.00, 19.00] class: 1
|   |   |   |   |   |   |   |   |   |   |   |   |   |   |   |--- feature_43 >  25.61
|   |   |   |   |   |   |   |   |   |   |   |   |   |   |   |   |--- weights: [1.00, 0.00] class: 0
|   |   |   |   |   |   |   |   |   |   |   |   |--- feature_17 >  25.12
|   |   |   |   |   |   |   |   |   |   |   |   |   |--- feature_28 <= 25.34
|   |   |   |   |   |   |   |   |   |   |   |   |   |   |--- feature_4 <= 25.05
|   |   |   |   |   |   |   |   |   |   |   |   |   |   |   |--- weights: [4.00, 0.00] class: 0
|   |   |   |   |   |   |   |   |   |   |   |   |   |   |--- feature_4 >  25.05
|   |   |   |   |   |   |   |   |   |   |   |   |   |   |   |--- feature_14 <= 25.47
|   |   |   |   |   |   |   |   |   |   |   |   |   |   |   |   |--- feature_45 <= 24.81
|   |   |   |   |   |   |   |   |   |   |   |   |   |   |   |   |   |--- weights: [1.00, 0.00] class: 0
|   |   |   |   |   |   |   |   |   |   |   |   |   |   |   |   |--- feature_45 >  24.81
|   |   |   |   |   |   |   |   |   |   |   |   |   |   |   |   |   |--- weights: [0.00, 19.00] class: 1
|   |   |   |   |   |   |   |   |   |   |   |   |   |   |   |--- feature_14 >  25.47
|   |   |   |   |   |   |   |   |   |   |   |   |   |   |   |   |--- feature_19 <= 25.31
|   |   |   |   |   |   |   |   |   |   |   |   |   |   |   |   |   |--- weights: [2.00, 0.00] class: 0
|   |   |   |   |   |   |   |   |   |   |   |   |   |   |   |   |--- feature_19 >  25.31
|   |   |   |   |   |   |   |   |   |   |   |   |   |   |   |   |   |--- weights: [0.00, 1.00] class: 1
|   |   |   |   |   |   |   |   |   |   |   |   |   |--- feature_28 >  25.34
|   |   |   |   |   |   |   |   |   |   |   |   |   |   |--- weights: [9.00, 0.00] class: 0
|   |   |   |   |   |   |   |   |   |   |   |--- feature_20 >  25.90
|   |   |   |   |   |   |   |   |   |   |   |   |--- feature_44 <= 25.54
|   |   |   |   |   |   |   |   |   |   |   |   |   |--- weights: [0.00, 22.00] class: 1
|   |   |   |   |   |   |   |   |   |   |   |   |--- feature_44 >  25.54
|   |   |   |   |   |   |   |   |   |   |   |   |   |--- weights: [1.00, 0.00] class: 0
|   |   |   |   |   |   |   |   |   |   |--- feature_5 >  25.55
|   |   |   |   |   |   |   |   |   |   |   |--- feature_36 <= 25.52
|   |   |   |   |   |   |   |   |   |   |   |   |--- feature_2 <= 25.85
|   |   |   |   |   |   |   |   |   |   |   |   |   |--- feature_20 <= 23.91
|   |   |   |   |   |   |   |   |   |   |   |   |   |   |--- feature_3 <= 25.65
|   |   |   |   |   |   |   |   |   |   |   |   |   |   |   |--- weights: [20.00, 0.00] class: 0
|   |   |   |   |   |   |   |   |   |   |   |   |   |   |--- feature_3 >  25.65
|   |   |   |   |   |   |   |   |   |   |   |   |   |   |   |--- weights: [0.00, 25.00] class: 1
|   |   |   |   |   |   |   |   |   |   |   |   |   |--- feature_20 >  23.91
|   |   |   |   |   |   |   |   |   |   |   |   |   |   |--- feature_20 <= 25.90
|   |   |   |   |   |   |   |   |   |   |   |   |   |   |   |--- feature_45 <= 24.66
|   |   |   |   |   |   |   |   |   |   |   |   |   |   |   |   |--- feature_32 <= 25.46
|   |   |   |   |   |   |   |   |   |   |   |   |   |   |   |   |   |--- weights: [0.00, 4.00] class: 1
|   |   |   |   |   |   |   |   |   |   |   |   |   |   |   |   |--- feature_32 >  25.46
|   |   |   |   |   |   |   |   |   |   |   |   |   |   |   |   |   |--- weights: [2.00, 0.00] class: 0
|   |   |   |   |   |   |   |   |   |   |   |   |   |   |   |--- feature_45 >  24.66
|   |   |   |   |   |   |   |   |   |   |   |   |   |   |   |   |--- feature_29 <= 26.15
|   |   |   |   |   |   |   |   |   |   |   |   |   |   |   |   |   |--- feature_38 <= 26.31
|   |   |   |   |   |   |   |   |   |   |   |   |   |   |   |   |   |   |--- feature_46 <= 24.53
|   |   |   |   |   |   |   |   |   |   |   |   |   |   |   |   |   |   |   |--- weights: [0.00, 1.00] class: 1
|   |   |   |   |   |   |   |   |   |   |   |   |   |   |   |   |   |   |--- feature_46 >  24.53
|   |   |   |   |   |   |   |   |   |   |   |   |   |   |   |   |   |   |   |--- feature_19 <= 26.38
|   |   |   |   |   |   |   |   |   |   |   |   |   |   |   |   |   |   |   |   |--- feature_3 <= 26.34
|   |   |   |   |   |   |   |   |   |   |   |   |   |   |   |   |   |   |   |   |   |--- feature_7 <= 25.97
|   |   |   |   |   |   |   |   |   |   |   |   |   |   |   |   |   |   |   |   |   |   |--- feature_8 <= 24.75
|   |   |   |   |   |   |   |   |   |   |   |   |   |   |   |   |   |   |   |   |   |   |   |--- feature_19 <= 25.01
|   |   |   |   |   |   |   |   |   |   |   |   |   |   |   |   |   |   |   |   |   |   |   |   |--- weights: [0.00, 3.00] class: 1
|   |   |   |   |   |   |   |   |   |   |   |   |   |   |   |   |   |   |   |   |   |   |   |--- feature_19 >  25.01
|   |   |   |   |   |   |   |   |   |   |   |   |   |   |   |   |   |   |   |   |   |   |   |   |--- weights: [7.00, 0.00] class: 0
|   |   |   |   |   |   |   |   |   |   |   |   |   |   |   |   |   |   |   |   |   |   |--- feature_8 >  24.75
|   |   |   |   |   |   |   |   |   |   |   |   |   |   |   |   |   |   |   |   |   |   |   |--- feature_42 <= 26.20
|   |   |   |   |   |   |   |   |   |   |   |   |   |   |   |   |   |   |   |   |   |   |   |   |--- feature_5 <= 25.59
|   |   |   |   |   |   |   |   |   |   |   |   |   |   |   |   |   |   |   |   |   |   |   |   |   |--- feature_23 <= 24.92
|   |   |   |   |   |   |   |   |   |   |   |   |   |   |   |   |   |   |   |   |   |   |   |   |   |   |--- weights: [0.00, 2.00] class: 1
|   |   |   |   |   |   |   |   |   |   |   |   |   |   |   |   |   |   |   |   |   |   |   |   |   |--- feature_23 >  24.92
|   |   |   |   |   |   |   |   |   |   |   |   |   |   |   |   |   |   |   |   |   |   |   |   |   |   |--- feature_7 <= 24.50
|   |   |   |   |   |   |   |   |   |   |   |   |   |   |   |   |   |   |   |   |   |   |   |   |   |   |   |--- weights: [0.00, 1.00] class: 1
|   |   |   |   |   |   |   |   |   |   |   |   |   |   |   |   |   |   |   |   |   |   |   |   |   |   |--- feature_7 >  24.50
|   |   |   |   |   |   |   |   |   |   |   |   |   |   |   |   |   |   |   |   |   |   |   |   |   |   |   |--- weights: [21.00, 0.00] class: 0
|   |   |   |   |   |   |   |   |   |   |   |   |   |   |   |   |   |   |   |   |   |   |   |   |--- feature_5 >  25.59
|   |   |   |   |   |   |   |   |   |   |   |   |   |   |   |   |   |   |   |   |   |   |   |   |   |--- weights: [256.00, 0.00] class: 0
|   |   |   |   |   |   |   |   |   |   |   |   |   |   |   |   |   |   |   |   |   |   |   |--- feature_42 >  26.20
|   |   |   |   |   |   |   |   |   |   |   |   |   |   |   |   |   |   |   |   |   |   |   |   |--- feature_20 <= 25.19
|   |   |   |   |   |   |   |   |   |   |   |   |   |   |   |   |   |   |   |   |   |   |   |   |   |--- weights: [0.00, 2.00] class: 1
|   |   |   |   |   |   |   |   |   |   |   |   |   |   |   |   |   |   |   |   |   |   |   |   |--- feature_20 >  25.19
|   |   |   |   |   |   |   |   |   |   |   |   |   |   |   |   |   |   |   |   |   |   |   |   |   |--- weights: [3.00, 0.00] class: 0
|   |   |   |   |   |   |   |   |   |   |   |   |   |   |   |   |   |   |   |   |   |--- feature_7 >  25.97
|   |   |   |   |   |   |   |   |   |   |   |   |   |   |   |   |   |   |   |   |   |   |--- feature_12 <= 25.10
|   |   |   |   |   |   |   |   |   |   |   |   |   |   |   |   |   |   |   |   |   |   |   |--- weights: [2.00, 0.00] class: 0
|   |   |   |   |   |   |   |   |   |   |   |   |   |   |   |   |   |   |   |   |   |   |--- feature_12 >  25.10
|   |   |   |   |   |   |   |   |   |   |   |   |   |   |   |   |   |   |   |   |   |   |   |--- weights: [0.00, 2.00] class: 1
|   |   |   |   |   |   |   |   |   |   |   |   |   |   |   |   |   |   |   |   |--- feature_3 >  26.34
|   |   |   |   |   |   |   |   |   |   |   |   |   |   |   |   |   |   |   |   |   |--- weights: [0.00, 1.00] class: 1
|   |   |   |   |   |   |   |   |   |   |   |   |   |   |   |   |   |   |   |--- feature_19 >  26.38
|   |   |   |   |   |   |   |   |   |   |   |   |   |   |   |   |   |   |   |   |--- weights: [0.00, 1.00] class: 1
|   |   |   |   |   |   |   |   |   |   |   |   |   |   |   |   |   |--- feature_38 >  26.31
|   |   |   |   |   |   |   |   |   |   |   |   |   |   |   |   |   |   |--- weights: [0.00, 2.00] class: 1
|   |   |   |   |   |   |   |   |   |   |   |   |   |   |   |   |--- feature_29 >  26.15
|   |   |   |   |   |   |   |   |   |   |   |   |   |   |   |   |   |--- weights: [0.00, 2.00] class: 1
|   |   |   |   |   |   |   |   |   |   |   |   |   |   |--- feature_20 >  25.90
|   |   |   |   |   |   |   |   |   |   |   |   |   |   |   |--- weights: [0.00, 5.00] class: 1
|   |   |   |   |   |   |   |   |   |   |   |   |--- feature_2 >  25.85
|   |   |   |   |   |   |   |   |   |   |   |   |   |--- feature_33 <= 24.87
|   |   |   |   |   |   |   |   |   |   |   |   |   |   |--- weights: [0.00, 44.00] class: 1
|   |   |   |   |   |   |   |   |   |   |   |   |   |--- feature_33 >  24.87
|   |   |   |   |   |   |   |   |   |   |   |   |   |   |--- weights: [24.00, 0.00] class: 0
|   |   |   |   |   |   |   |   |   |   |   |--- feature_36 >  25.52
|   |   |   |   |   |   |   |   |   |   |   |   |--- feature_33 <= 25.32
|   |   |   |   |   |   |   |   |   |   |   |   |   |--- feature_27 <= 25.38
|   |   |   |   |   |   |   |   |   |   |   |   |   |   |--- feature_28 <= 25.29
|   |   |   |   |   |   |   |   |   |   |   |   |   |   |   |--- weights: [45.00, 0.00] class: 0
|   |   |   |   |   |   |   |   |   |   |   |   |   |   |--- feature_28 >  25.29
|   |   |   |   |   |   |   |   |   |   |   |   |   |   |   |--- weights: [0.00, 3.00] class: 1
|   |   |   |   |   |   |   |   |   |   |   |   |   |--- feature_27 >  25.38
